svm_type c_svc
kernel_type rbf
gamma 0.5
nr_class 2
total_sv 60
rho 0.124631
label 1 -1
nr_sv 36 24
SV
0.5147814770959551 1:0.476923 2:0.0459194 3:0.081596 4:0.0803604 5:0.393629 6:0.971475 7:0.0426408 8:0.12445 9:0.0204319 10:0.0418983 11:1 37:0.0985799 477:0.99313 599:0.0658387 
0.3333872904939319 1:0.441176 2:0.513499 3:0.685809 4:0.993954 5:0.120483 6:0.120721 7:0.0632488 8:0.153296 9:0.0253517 10:0.0364561 11:1 37:0.255109 477:0.987722 599:0.193193 
0.3227508039304409 1:0.55969 2:0.0154799 3:0.897933 4:1 5:0.999926 6:1 7:0.0281686 8:0.0779165 9:0.0210121 10:0.0491144 11:1 37:0.309798 477:0.959467 599:0.618953 
0.3153207758809284 1:0.441176 2:0.0159192 3:0.155798 4:0.295599 5:0.878307 6:1 7:0.0319891 8:0.091352 9:0.0174681 10:0.0142432 11:1 37:0.295018 477:0.951234 599:0.691775 
0.006134540910252988 1:0.463415 2:0.0348292 3:0.841826 4:0.998299 5:0.947 6:0.999987 7:0.0233291 8:0.0154326 9:0.0352978 10:0.0519358 11:1 477:0.986387 599:0.468756 
0.2368630751875143 1:0.628571 2:0.598644 3:0.114655 4:0.0743445 5:0.115482 6:0.079581 7:0.0232216 8:0.0194217 9:0.0227961 10:0.023817 11:1 37:0.159345 477:0.991565 599:0.106735 
0.7461602850572657 1:0.52 2:0.900047 3:0.0709152 4:0.113924 5:0.0496021 6:0.0670601 7:0.00999967 8:0.0138807 9:0.0114281 10:0.0146492 11:0.875 12:0.35261 15:0.104876 34:0.104876 35:0.20747 92:0.20747 123:0.052583 135:0.052583 149:0.052583 173:0.052583 455:0.686923 3318:0.104876 8092:0.20747 8101:0.104876 11223:0.104876 15366:0.104876 21332:0.104876 23373:0.104876 49164:0.104876 
0.4021288287554344 1:0.517647 2:0.77172 3:0.131025 4:0.143347 5:0.09957 6:0.0624951 7:0.0554875 8:0.0462374 9:0.0582508 10:0.0491355 11:0.958763 12:0.0888738 34:0.972618 92:0.118256 135:0.044525 455:0.315582 49164:0.118256 
0.2327230263531745 1:0.487277 2:0.76374 3:0.15043 4:0.0956363 5:0.125651 6:0.063187 7:0.0769581 8:0.0561057 9:0.0796491 10:0.0552946 11:0.992 34:0.992524 455:0.11165 
8 1:0.634444 2:0.381279 3:0.011454 4:0.00684447 5:0.0260387 6:0.0747926 7:0.00749431 8:0.019686 9:0.0222462 10:0.0557934 11:0 135:0.995016 
2.814544344820012 1:0.538306 2:0.491974 3:0.0133445 4:0.0182379 5:0.0155882 6:0.0203113 7:0.0172105 8:0.131346 9:0.0244362 10:0.148096 11:0 135:0.994969 
8 1:0.598757 2:0.462303 3:0.0112703 4:0.00661433 5:0.0176837 6:0.0270984 7:0.00905841 8:0.0276081 9:0.0179375 10:0.0469125 11:0 135:0.99503 
0.341908942940464 1:0.50431 2:0.436508 3:0.0116369 4:0.0088345 5:0.0151551 6:0.0185349 7:0.0106453 8:0.0334758 9:0.0173004 10:0.0536902 11:0 135:0.995008 
0.2590227999586324 1:0.504113 2:0.913001 3:0.311998 4:0.99952 5:0.209216 6:0.980192 7:0.115959 8:0.369249 9:0.116486 10:0.368645 11:0.91356 92:0.32889 455:0.990206 
0.4554847734601334 1:0.5 2:0.967177 3:1 4:1 5:1 6:1 7:0.331934 8:0.322625 9:0.331934 10:0.328382 11:1 92:0.635149 455:0.635149 885:0.905148 
0.2289698412263356 1:0.5 2:0.960095 3:1 4:1 5:1 6:1 7:0.191602 8:0.283531 9:0.255334 10:0.292743 11:1 92:0.156596 455:0.955785 885:0.738589 
0.4470798364881243 1:0.622429 2:0.849907 3:0.0588682 4:0.134123 5:0.082747 6:0.171657 7:0.0223401 8:0.0877168 9:0.0329823 10:0.179606 11:0.996956 1005:0.993536 1007:0.0563524 
0.1987189208832329 1:0.555016 2:0.639549 3:0.159999 4:0.891539 5:0.17323 6:0.949883 7:0.0300612 8:0.0790348 9:0.0263904 10:0.0642741 11:0.999209 1005:0.993657 1007:0.0731436 
0.2650423000293086 1:0.299096 2:0.426476 3:0.112798 4:0.751564 5:0.0629596 6:0.176475 7:0.062736 8:0.367511 9:0.0379817 10:0.216404 11:0.0436791 15:0.255712 5072:0.987937 5073:0.0820383 
0.04826330556829568 1:0.476015 2:0.261076 3:0.0139873 4:0.0234203 5:0.0273258 6:0.0522332 7:0.0111356 8:0.0440871 9:0.0494437 10:0.226641 11:0.0390356 5072:0.992976 5073:0.0767282 
1.17608530290954 1:0.752336 2:0.382421 3:0.0412684 4:0.090101 5:0.0718617 6:0.616805 7:0.0767309 8:0.40326 9:0.0954532 10:0.371739 11:0.0238998 12:0.0568161 455:0.0412405 5072:0.97701 36941:0.1527 39633:0.0812332 40185:0.0768001 41367:0.0978274 47731:0.138509 49164:0.0779087 
0.8959628932563037 1:0.583333 2:0.944175 3:0.853119 4:0.905562 5:0.393555 6:0.421281 7:0.714467 8:0.84933 9:0.0359845 10:0.0471233 11:1 1005:0.995055 
0.6029582105819623 1:0.5 2:0.201888 3:0.916227 4:0.915996 5:0.980869 6:0.996873 7:0.0149989 8:0.00649804 9:0.0149989 10:0.00809482 11:1 37:0.978026 18458:0.635149 
0.7698859256448618 1:0.428571 2:0.436454 3:0.219693 4:0.106161 5:0.989967 6:0.999614 7:0.033321 8:0.0372256 9:0.0574367 10:0.0311045 11:1 37:0.694783 125:0.404127 12516:0.404127 13195:0.404127 47249:0.694783 
0.06045381024728097 1:0.5 2:0.711866 3:0.331934 4:0.380901 5:0.242567 6:0.0432021 7:0.0149989 8:0.00964991 9:0.00999967 10:0.00663341 11:1 37:0.983675 7992:0.291313 8135:0.291313 
0.5767354921615166 1:0.5 2:0.95447 3:0.559428 4:0.742431 5:0.184528 6:0.0622802 7:0.0159986 8:0.0172061 9:0.0133325 10:0.00553611 11:1 37:0.954045 27032:0.635149 48469:0.358357 
2.248943424964229 1:0.25 2:0.147615 3:0.13664 4:0.00829137 5:0.171618 6:0.0188539 7:0.0149989 8:0.00469521 9:0.0199973 10:0.00478801 11:1 37:0.995055 
0.4876059005209146 1:0.3 2:0.315004 3:0.99417 4:0.999892 5:0.98518 6:0.999982 7:0.0124993 8:0.0105669 9:0.114496 10:0.180939 11:1 37:0.635149 27363:0.244919 38771:0.964028 
0.7336725062793187 1:0.666667 2:0.984173 3:1 4:1 5:1 6:1 7:0.0649086 8:0.0534835 9:0.0632488 10:0.0800481 11:1 37:0.694783 11162:0.404127 11165:0.694783 11173:0.404127 49164:0.404127 
0.4762000573394012 1:0.89726 2:0.999866 3:0.226054 4:0.977529 5:0.00999967 6:0 7:0.0468802 8:0.0333625 9:0.00374998 10:0.0035475 11:0.949868 135:0.149272 8012:0.993219 
2.480842293284051 1:0.967442 2:0.999639 3:0.0803903 4:0.0656648 5:0.00999967 6:0 7:0.0323477 8:0.0350816 9:0.00142857 10:0.00324527 11:0.982368 92:0.135187 135:0.0528474 8012:0.898811 49164:0.871078 
0.8005027876104599 1:0.5 2:0.0225235 3:0.0399787 4:0 5:0.967395 6:0 7:0 8:0.00996967 9:0 10:0.00644991 11:1 92:0.995055 
0.09282630328366931 1:0.571429 2:0.972052 3:0.999792 4:0.998414 5:0.987245 6:0.997031 7:0.170539 8:0.161158 9:0.00428569 10:0.00409076 11:1 92:0.995055 
0.2663833087919086 1:0.462687 2:0.509615 3:0.0408863 4:0.0154444 5:0.0499584 6:0.0156161 7:0.0433062 8:0.0620037 9:0.0502017 10:0.0706569 11:1 92:0.990561 49164:0.313412 
0.159712675467981 1:0.441176 2:0.994372 3:0.649466 4:0.880162 5:0.0433062 6:0.0342244 7:0.105852 8:0.0789045 9:0.0595129 10:0.0783674 11:1 92:0.995055 
0.1834117926430733 1:0.5 2:0.996376 3:0.830579 4:0 5:0.0499584 6:0 7:0.00999967 8:0.0124893 9:0 10:0.00204 11:1 92:0.995055 
-1.620736622310055 1:0 2:0 3:0 4:0 5:0.227384 6:0.457869 7:0 8:0 9:0.0925912 10:0.152846 11:0 149:0.694783 150:0.972846 
-0.1795461704767168 1:0.986842 2:0.671515 3:1 4:1 5:1 6:0 7:0.149786 8:0.47793 9:0.725897 10:0.726252 11:0.56338 135:0.0422284 5365:0.0632956 34386:0.228299 39521:0.0316795 40490:0.0316795 40496:0.0316795 41633:0.0316795 43891:0.228299 44911:0.094785 45532:0.126086 45549:0.0843064 49164:0.749508 
-0.3661099359492176 1:0.990885 2:0.89115 3:0.16739 4:0.502218 5:0.930888 6:0.913796 7:0.170249 8:0.522326 9:0.606269 10:0.425445 11:0.608871 33118:0.0741723 35630:0.0397256 36810:0.0586882 42290:0.0517969 42800:0.115269 45146:0.101607 45192:0.0913346 45562:0.098185 46200:0.0604102 46484:0.0345485 49164:0.847149 
-0.4773475494199594 1:0.992366 2:0.0109113 3:0.814219 4:0.997641 5:1 6:0 7:0.0767377 8:0.182087 9:0.382797 10:0.517895 11:0.778761 35761:0.192267 36933:0.0309636 46071:0.144989 46086:0.144989 46685:0.131969 49164:0.796328 
-0.02208255927433403 1:0.992593 2:0.648988 3:0.236422 4:0.829932 5:0.999804 6:1 7:0.227449 8:0.602359 9:0.793992 10:0.833525 11:0.54491 32908:0.0598088 32926:0.0598088 34826:0.0598088 37038:0.043884 39634:0.0796711 40008:0.0677603 40570:0.113284 42312:0.0598088 42378:0.0598088 44542:0.0558301 48120:0.039899 49164:0.816327 
-0.7482181060700512 1:0.99341 2:0.924426 3:0.57873 4:0.999999 5:0.993275 6:0.995938 7:0.154513 8:0.511784 9:0.753786 10:0.749784 11:0.547424 36810:0.0392276 36890:0.0636913 38518:0.0380029 42890:0.073457 45192:0.073457 45294:0.0868615 46200:0.0429009 48606:0.073457 49164:0.831245 
-0.9392832997680213 1:1 2:1 3:0.0199973 4:0 5:0 6:0 7:0 8:0 9:0 10:0 11:1 42011:0.761594 49164:0.964028 
-0.1702195055087883 1:1 2:1 3:0.107171 4:0.166282 5:0 6:0 7:0.20343 8:0.57637 9:0 10:0 11:0.673303 33336:0.174661 35326:0.16147 36286:0.16147 36288:0.16147 36290:0.16147 36686:0.102803 37796:0.132252 41294:0.0488299 43328:0.0569519 46002:0.0866599 49164:0.707596 
-0.2770054419510719 1:1 2:1 3:0.138649 4:0.436132 5:0 6:0 7:0.0720939 8:0.217954 9:0 10:0 11:0.824658 36070:0.0533739 38315:0.0533739 41130:0.0369694 44165:0.0533739 49164:0.716298 
-0.1616498024914853 1:1 2:1 3:0.196791 4:0.65232 5:0 6:0 7:0.171662 8:0.504497 9:0 10:0 11:0.695946 32804:0.121025 33720:0.0405183 36446:0.140947 37040:0.060736 37041:0.0405183 38118:0.121025 40844:0.0809039 41332:0.121025 42496:0.0405183 45606:0.140947 45962:0.060736 45968:0.060736 46080:0.101006 47790:0.060736 48744:0.121025 49164:0.597461 
-0.4223447626987925 1:1 2:1 3:0.299207 4:0.899125 5:0 6:0 7:0.0996145 8:0.230664 9:0 10:0 11:0.837838 33804:0.0324211 34920:0.0324211 35761:0.318278 37934:0.0324211 40742:0.0324211 41900:0.0324211 42734:0.0324211 42833:0.0432163 46071:0.181742 46086:0.197375 46685:0.166017 49164:0.714979 
-0.7997866563234483 1:1 2:1 3:0.609378 4:0.894982 5:0 6:0 7:0.354293 8:0.598004 9:0 10:0 11:0.862069 150:0.103081 5365:0.103081 34025:0.203994 34256:0.203994 34257:0.203994 35697:0.103081 36070:0.203994 38315:0.203994 38401:0.103081 41584:0.203994 44165:0.391689 44183:0.103081 45202:0.103081 45342:0.103081 49164:0.551608 
-0.5247553455419524 1:1 2:1 3:0.928603 4:1 5:0 6:0 7:0.273794 8:0.623702 9:0 10:0 11:0.758278 33682:0.0891665 34386:0.325466 40489:0.0496281 40490:0.0496281 40496:0.0793033 43891:0.298568 44911:0.233994 45532:0.157615 45549:0.176926 49164:0.688117 
-3.18889402819285 1:0.5 2:0.034539 3:0.336376 4:0.235496 5:0.39693 6:0.388473 7:0 8:0.00306319 9:0 10:0.00310944 11:0.75 37:0.978026 65:0.635149 
-2.383314562805109 1:0.5 2:0.269231 3:0.00999967 4:0 5:0.0399787 6:0 7:0 8:0.00813982 9:0 10:0.00306999 11:0 65:0.905148 135:0.905148 
-0.5212647517523705 1:0.486486 2:0.0429482 3:0.202176 4:0.108518 5:0.381984 6:0.320823 7:0.11614 8:0.0501729 9:0.102496 10:0.060386 11:0.769231 36925:0.0767717 44722:0.152644 47190:0.152644 49164:0.989358 
-3.295612633277838 1:0.6 2:0.308108 3:0.00999967 4:0 5:0.0266603 6:0.0235659 7:0.00333332 8:0.00618607 9:0.0199973 10:0.0256953 11:0.166667 35:0.462117 135:0.905148 36259:0.462117 41230:0.462117 
-2.504342502880113 1:0.75 2:0.75 3:0.00999967 4:0 5:0.00999967 6:0 7:0.00333332 8:0.00623686 9:0 10:0.00400998 11:0 135:0.978026 40739:0.635149 
-3.103569466686165 1:0.75 2:0.75 3:0.0149989 4:0.0111799 5:0.00999967 6:0 7:0.00499996 8:0.00326676 9:0.00333332 10:0.00510353 11:0 135:0.964028 33145:0.321513 34564:0.321513 36777:0.321513 
-2.577696478098956 1:0.8 2:0.8 3:0.00999967 4:0 5:0.00999967 6:0 7:0.00249999 8:0.00358892 9:0 10:0.00303999 11:0 135:0.983675 8900:0.53705 
-7.66536155734243 1:0.833333 2:0.515604 3:0.00999967 4:0 5:0.00999967 6:0 7:0.00399998 8:0.00517539 9:0.00499996 10:0.00380353 11:0 135:0.99039 49164:0.321513 
-1.942927299160375 1:0.666667 2:0.0103998 3:0.0732022 4:0.140678 5:0.33045 6:0.63237 7:0.0416426 8:0.0847123 9:0.0433062 10:0.0895183 11:0.166667 135:0.964028 2451:0.462117 49164:0.462117 
-1.100453304830644 1:0.435484 2:0.253845 3:0.0532828 4:0.0180515 5:0.0689381 6:0.00749891 7:0.0177759 8:0.005766 9:0.0199973 10:0.00517115 11:1 3401:0.995055 
-1.188945511215167 1:0.506329 2:0.395072 3:0.0644107 4:0.00804656 5:0.0698859 6:0 7:0.0194975 8:0.00447134 9:0.0187478 10:0.00381318 11:1 3401:0.995055 
