svm_type c_svc
kernel_type rbf
gamma 0.007812
nr_class 2
total_sv 80
rho 0.503121
label 1 -1
nr_sv 38 42
SV
8 1:0.496689 2:0.701329 3:0.134125 4:0.0920097 5:0.0999037 6:0.0704081 7:0.0570983 8:0.0436135 9:0.0558941 10:0.045503 11:0.901961 12:0.179841 33:0.179841 34:0.938733 35:0.0725993 92:0.10866 455:0.162191 5072:0.0363476 6678:0.0363476 7559:0.0725993 8037:0.0363476 8092:0.0725993 27029:0.0363476 28271:0.0363476 
8 1:0.482625 2:0.623024 3:0.157306 4:0.0693605 5:0.128316 6:0.0605969 7:0.0793977 8:0.0490204 9:0.0763097 10:0.0478377 11:0.962687 12:0.0954532 15:0.0425275 34:0.979153 35:0.0425275 92:0.0849015 455:0.229861 49164:0.0531414 
8 1:0.462366 2:0.635904 3:0.156685 4:0.0710916 5:0.127644 6:0.0647545 7:0.0754937 8:0.0402249 9:0.0730543 10:0.0440854 11:0.938776 12:0.0977263 34:0.972544 35:0.0391956 92:0.0977263 455:0.249521 5072:0.0489804 8092:0.0391956 9212:0.0587558 
8 1:0.52 2:0.900047 3:0.0709152 4:0.113924 5:0.0496021 6:0.0670601 7:0.00999967 8:0.0138807 9:0.0114281 10:0.0146492 11:0.875 12:0.35261 15:0.104876 34:0.104876 35:0.20747 92:0.20747 123:0.052583 135:0.052583 149:0.052583 173:0.052583 455:0.686923 3318:0.104876 8092:0.20747 8101:0.104876 11223:0.104876 15366:0.104876 21332:0.104876 23373:0.104876 49164:0.104876 
1.351837972516928 1:0.478764 2:0.760786 3:0.141241 4:0.0885453 5:0.10798 6:0.0572699 7:0.0747235 8:0.0907727 9:0.071337 10:0.0626945 11:0.985915 12:0.0413557 34:0.982991 455:0.417638 49164:0.0413557 
8 1:0.517647 2:0.77172 3:0.131025 4:0.143347 5:0.09957 6:0.0624951 7:0.0554875 8:0.0462374 9:0.0582508 10:0.0491355 11:0.958763 12:0.0888738 34:0.972618 92:0.118256 135:0.044525 455:0.315582 49164:0.118256 
8 1:0.492754 2:0.802811 3:0.196288 4:0.140968 5:0.16 6:0.0829383 7:0.111528 8:0.0707039 9:0.11154 10:0.0704515 11:0.991018 34:0.98843 455:0.272905 
8 1:0.490231 2:0.750228 3:0.177971 4:0.122508 5:0.14744 6:0.0827845 7:0.113076 8:0.0686092 9:0.111747 10:0.0700959 11:0.994261 34:0.987615 37:0.118922 92:0.0341261 455:0.193818 
8 1:0.487277 2:0.76374 3:0.15043 4:0.0956363 5:0.125651 6:0.063187 7:0.0769581 8:0.0561057 9:0.0796491 10:0.0552946 11:0.992 34:0.992524 455:0.11165 
2.808449284688912 1:0.550085 2:0.914252 3:0.177787 4:0.18534 5:0.131497 6:0.100582 7:0.00907935 8:0.0351036 9:0.00975908 10:0.0379833 11:1 92:0.186989 455:0.99251 
8 1:0.504113 2:0.913001 3:0.311998 4:0.99952 5:0.209216 6:0.980192 7:0.115959 8:0.369249 9:0.116486 10:0.368645 11:0.91356 92:0.32889 455:0.990206 
8 1:0.501294 2:0.886341 3:0.201375 4:0.889773 5:0.136778 6:0.578446 7:0.106342 8:0.352381 9:0.106668 10:0.352607 11:0.927231 92:0.310401 455:0.9906 
8 1:0.499901 2:0.90395 3:0.196293 4:0.997804 5:0.128724 6:0.889725 7:0.0847307 8:0.319794 9:0.0840608 10:0.316046 11:0.9484 92:0.297646 455:0.990863 
8 1:0.502914 2:0.875353 3:0.153508 4:0.93501 5:0.10127 6:0.479675 7:0.0969277 8:0.329015 9:0.0990145 10:0.329625 11:0.941392 92:0.196471 455:0.992576 
2.273866239290945 1:0.49801 2:0.88561 3:0.220036 4:0.918391 5:0.177051 6:0.758346 7:0.0718175 8:0.23958 9:0.0720301 10:0.238575 11:0.974855 92:0.287537 455:0.991069 
8 1:0.529412 2:0.968846 3:0.238973 4:0.212117 5:0.174661 6:0.169334 7:0.0189451 8:0.0327917 9:0.0188213 10:0.0326466 11:1 33:0.16514 92:0.394119 455:0.083141 30187:0.16514 30205:0.16514 30220:0.16514 30250:0.16514 30313:0.16514 30328:0.16514 30389:0.16514 30524:0.16514 30595:0.16514 30743:0.16514 30759:0.16514 30788:0.16514 30806:0.16514 30975:0.16514 
8 1:0.5 2:0.960095 3:1 4:1 5:1 6:1 7:0.191602 8:0.283531 9:0.255334 10:0.292743 11:1 92:0.156596 455:0.955785 885:0.738589 
8 1:0.958025 2:0.999578 3:0.0964314 4:0.0869919 5:0.0124993 6:0.0108968 7:0.0291257 8:0.033037 9:0.00549994 10:0.0030401 11:0.957278 135:0.127467 8012:0.993614 
8 1:0.864407 2:0.99954 3:0.11653 4:0.0922012 5:0.00999967 6:0 7:0.0540152 8:0.0328316 9:0.00499996 10:0.00300926 11:0.914439 135:0.251192 8012:0.991751 
8 1:0.89726 2:0.999866 3:0.226054 4:0.977529 5:0.00999967 6:0 7:0.0468802 8:0.0333625 9:0.00374998 10:0.0035475 11:0.949868 135:0.149272 8012:0.993219 
8 1:0.891667 2:0.999593 3:0.111042 4:0.089106 5:0.0123071 6:0.00799391 7:0.0547893 8:0.0332893 9:0.00461535 10:0.00314341 11:0.953552 135:0.138449 8012:0.993471 
8 1:0.972171 2:0.999613 3:0.0819923 4:0.0803598 5:0.0117642 6:0.00705871 7:0.0281588 8:0.0357542 9:0.0035294 10:0.00371435 11:0.966452 92:0.149831 135:0.100307 8012:0.965194 49164:0.616909 
8 1:0.967442 2:0.999639 3:0.0803903 4:0.0656648 5:0.00999967 6:0 7:0.0323477 8:0.0350816 9:0.00142857 10:0.00324527 11:0.982368 92:0.135187 135:0.0528474 8012:0.898811 49164:0.871078 
8 1:0.893443 2:0.999606 3:0.0864001 4:0.0780161 5:0.00999967 6:0 7:0.0411698 8:0.0315008 9:0.00384613 10:0.00321672 11:0.962025 92:0.0379564 135:0.113434 8012:0.974307 49164:0.581388 
8 1:0.907285 2:0.999587 3:0.0977528 4:0.0815591 5:0.00999967 6:0 7:0.0440594 8:0.0282996 9:0.00624992 10:0.00306727 11:0.953291 92:0.120432 135:0.139217 8012:0.973377 49164:0.527003 
8 1:0.971366 2:0.999403 3:0.0970686 4:0.0793062 5:0.0153321 6:0.0120364 7:0.0215426 8:0.0267744 9:0.00533328 10:0.00359724 11:0.971698 92:0.0800172 135:0.0847022 8012:0.961973 49164:0.697907 
8 1:0.839506 2:0.999577 3:0.104303 4:0.0861373 5:0.00999967 6:0 7:0.0485062 8:0.0264147 9:0.00538456 10:0.002747 11:0.951368 135:0.14487 8012:0.986574 49164:0.162676 
4.761072358604354 1:0.765625 2:0.999531 3:0.10919 4:0.0883243 5:0.00999967 6:0 7:0.0567922 8:0.0228974 9:0.0042105 10:0.00345602 11:0.931472 135:0.188089 8012:0.992549 
8 1:0.5 2:0.0225235 3:0.0399787 4:0 5:0.967395 6:0 7:0 8:0.00996967 9:0 10:0.00644991 11:1 92:0.995055 
8 1:0.582857 2:0.974798 3:0.938431 4:0.994708 5:0.779281 6:0.867336 7:0.0514201 8:0.106656 9:0.0397352 10:0.0735785 11:1 92:0.995055 
5.882227660599812 1:0.516129 2:0.984628 3:0.88338 4:0.982344 5:0.396487 6:0.61076 7:0.0171412 8:0.0371743 9:0.0178928 10:0.0386873 11:1 92:0.995055 
8 1:0.571429 2:0.972052 3:0.999792 4:0.998414 5:0.987245 6:0.997031 7:0.170539 8:0.161158 9:0.00428569 10:0.00409076 11:1 92:0.995055 
8 1:0.0138889 2:0.00263394 3:0.029991 4:0 5:0.090562 6:0.0647948 7:0.0499584 8:0.0294051 9:0.0249948 10:0.132722 11:1 92:0.995055 
5.910924342100453 1:0 2:0 3:0 4:0 5:0.0306722 6:0.00252057 7:0 8:0 9:0.0929131 10:0.00882417 11:1 92:0.995055 
8 1:0.214953 2:0.187105 3:0.0207662 4:0.012379 5:0.0324886 6:0.011661 7:0.0311438 8:0.0520429 9:0.0775166 10:0.0653035 11:1 92:0.995055 
8 1:0.462687 2:0.509615 3:0.0408863 4:0.0154444 5:0.0499584 6:0.0156161 7:0.0433062 8:0.0620037 9:0.0502017 10:0.0706569 11:1 92:0.990561 49164:0.313412 
8 1:0.412836 2:0.373234 3:0.0535994 4:0.0355243 5:0.0753412 6:0.0560523 7:0.0534763 8:0.0438867 9:0.0519718 10:0.0397804 11:0.962482 12:0.0526199 34:0.0400067 92:0.988211 49164:0.0777919 
8 1:0.341667 2:0.604582 3:0.0780826 4:0.649101 5:0.0874304 6:0.287603 7:0.0545875 8:0.0369923 9:0.0419269 10:0.0396242 11:0.998665 12:0.04419 92:0.99343 
-8 1:0.476923 2:0.0459194 3:0.081596 4:0.0803604 5:0.393629 6:0.971475 7:0.0426408 8:0.12445 9:0.0204319 10:0.0418983 11:1 37:0.0985799 477:0.99313 599:0.0658387 
-8 1:0.363636 2:0.0150914 3:0.867685 4:0.999114 5:0.972717 6:0.999996 7:0.0136355 8:0.0159502 9:0.0136355 10:0.0152047 11:1 477:0.991483 599:0.266161 
-8 1:0.461538 2:0.709091 3:0.0704712 4:0.0592868 5:0.0659909 6:0.0535769 7:0.047611 8:0.142479 9:0.0104344 10:0.0091739 11:1 477:0.995055 
-0.2462032233817624 1:0.463415 2:0.0348292 3:0.841826 4:0.998299 5:0.947 6:0.999987 7:0.0233291 8:0.0154326 9:0.0352978 10:0.0519358 11:1 477:0.986387 599:0.468756 
-8 1:0.628571 2:0.598644 3:0.114655 4:0.0743445 5:0.115482 6:0.079581 7:0.0232216 8:0.0194217 9:0.0227961 10:0.023817 11:1 37:0.159345 477:0.991565 599:0.106735 
-6.835109303941146 1:0.387409 2:0.951835 3:0.249155 4:0.988506 5:0.0985287 6:0.659199 7:0.0440416 8:0.17905 9:0.0260945 10:0.15428 11:0.998333 1005:0.993045 1007:0.0895124 
-8 1:0.48153 2:0.932104 3:0.14338 4:0.84861 5:0.108834 6:0.410733 7:0.0362062 8:0.132319 9:0.0416554 10:0.213007 11:0.997604 1005:0.993634 1007:0.0412479 
-8 1:0.545833 2:0.881121 3:0.0775025 4:0.288742 5:0.0758171 6:0.186672 7:0.0351227 8:0.17014 9:0.0297849 10:0.173555 11:0.997892 1005:0.993489 1007:0.0822022 
-8 1:0.622429 2:0.849907 3:0.0588682 4:0.134123 5:0.082747 6:0.171657 7:0.0223401 8:0.0877168 9:0.0329823 10:0.179606 11:0.996956 1005:0.993536 1007:0.0563524 
-8 1:0.499544 2:0.817611 3:0.0586048 4:0.176614 5:0.0617485 6:0.183743 7:0.0268763 8:0.150312 9:0.0234883 10:0.14984 11:0.988008 1005:0.993452 1007:0.0544555 
-8 1:0.505568 2:0.829491 3:0.0615835 4:0.182533 5:0.0680662 6:0.216254 7:0.0280593 8:0.136925 9:0.0217757 10:0.14546 11:0.999006 1005:0.99386 1007:0.0660006 
-0.7503553691980275 1:0.598266 2:0.907807 3:0.105685 4:0.4409 5:0.118569 6:0.29853 7:0.0442025 8:0.153111 9:0.037828 10:0.138478 11:0.997254 1005:0.993131 1007:0.0777118 49164:0.0352313 
-8 1:0.507019 2:0.418209 3:0.0500294 4:0.131476 5:0.0569532 6:0.283743 7:0.162213 8:0.571444 9:0.0684709 10:0.328613 11:0.0811528 12:0.0358323 455:0.138023 5072:0.989271 5073:0.0671133 
-3.498752100634024 1:0 2:0 3:0 4:0 5:0.227384 6:0.457869 7:0 8:0 9:0.0925912 10:0.152846 11:0 149:0.694783 150:0.972846 
-8 1:1 2:1 3:0.0199973 4:0 5:0 6:0 7:0 8:0 9:0 10:0 11:1 42011:0.761594 49164:0.964028 
-6.675911812288626 1:1 2:1 3:0.0739757 4:0.13618 5:0 6:0 7:0.0205527 8:0.0692316 9:0 10:0 11:0.666667 150:0.0665681 5365:0.0554985 32822:0.0665681 36422:0.0776213 37068:0.0665681 37570:0.033321 41263:0.0665681 43020:0.0665681 49164:0.94906 
-6.28921054561438 1:1 2:1 3:0.107171 4:0.166282 5:0 6:0 7:0.20343 8:0.57637 9:0 10:0 11:0.673303 33336:0.174661 35326:0.16147 36286:0.16147 36288:0.16147 36290:0.16147 36686:0.102803 37796:0.132252 41294:0.0488299 43328:0.0569519 46002:0.0866599 49164:0.707596 
-8 1:1 2:1 3:0.138649 4:0.436132 5:0 6:0 7:0.0720939 8:0.217954 9:0 10:0 11:0.824658 36070:0.0533739 38315:0.0533739 41130:0.0369694 44165:0.0533739 49164:0.716298 
-8 1:1 2:1 3:0.196791 4:0.65232 5:0 6:0 7:0.171662 8:0.504497 9:0 10:0 11:0.695946 32804:0.121025 33720:0.0405183 36446:0.140947 37040:0.060736 37041:0.0405183 38118:0.121025 40844:0.0809039 41332:0.121025 42496:0.0405183 45606:0.140947 45962:0.060736 45968:0.060736 46080:0.101006 47790:0.060736 48744:0.121025 49164:0.597461 
-8 1:1 2:1 3:0.201125 4:0.660977 5:0 6:0 7:0.0822976 8:0.234381 9:0 10:0 11:0.788095 35761:0.0902301 35899:0.0475831 42833:0.0452073 46071:0.0523331 46086:0.0641973 46685:0.0475831 49164:0.758578 
-8 1:1 2:1 3:0.215919 4:0.631471 5:0 6:0 7:0.0711198 8:0.188757 9:0 10:0 11:0.743136 34338:0.0345301 34565:0.0371839 39196:0.045142 49164:0.814396 
-8 1:1 2:1 3:0.217559 4:0.573613 5:0 6:0 7:0.089316 8:0.246163 9:0 10:0 11:0.795977 150:0.0301633 40427:0.115857 49164:0.901177 
-2.603207488090741 1:1 2:1 3:0.225298 4:0.668725 5:0 6:0 7:0.0816925 8:0.233481 9:0 10:0 11:0.759615 39563:0.0317201 41109:0.146063 41871:0.0317201 46677:0.0461211 49164:0.843913 
-2.061759497039344 1:1 2:1 3:0.275023 4:0.878063 5:0 6:0 7:0.131745 8:0.396632 9:0 10:0 11:0.880503 33669:0.0377179 34432:0.0565434 34459:0.0339492 36397:0.236921 41731:0.0339492 42762:0.157177 47673:0.11645 49164:0.863173 
-8 1:1 2:1 3:0.299207 4:0.899125 5:0 6:0 7:0.0996145 8:0.230664 9:0 10:0 11:0.837838 33804:0.0324211 34920:0.0324211 35761:0.318278 37934:0.0324211 40742:0.0324211 41900:0.0324211 42734:0.0324211 42833:0.0432163 46071:0.181742 46086:0.197375 46685:0.166017 49164:0.714979 
-8 1:1 2:1 3:0.609378 4:0.894982 5:0 6:0 7:0.354293 8:0.598004 9:0 10:0 11:0.862069 150:0.103081 5365:0.103081 34025:0.203994 34256:0.203994 34257:0.203994 35697:0.103081 36070:0.203994 38315:0.203994 38401:0.103081 41584:0.203994 44165:0.391689 44183:0.103081 45202:0.103081 45342:0.103081 49164:0.551608 
-0.7099718329585645 1:0.333333 2:0.587571 3:0.00999967 4:0 5:0.00999967 6:0 7:0 8:0.00465997 9:0.00499996 10:0.00733979 11:0 65:0.995055 
-8 1:0.444444 2:0.733106 3:0.00999967 4:0 5:0.00999967 6:0 7:0.00428569 8:0.00403222 9:0.00571422 10:0.00232491 11:0 65:0.995055 
-8 1:0.428571 2:0.436454 3:0.219693 4:0.106161 5:0.989967 6:0.999614 7:0.033321 8:0.0372256 9:0.0574367 10:0.0311045 11:1 37:0.694783 125:0.404127 12516:0.404127 13195:0.404127 47249:0.694783 
-8 1:0.5 2:0.711866 3:0.331934 4:0.380901 5:0.242567 6:0.0432021 7:0.0149989 8:0.00964991 9:0.00999967 10:0.00663341 11:1 37:0.983675 7992:0.291313 8135:0.291313 
-8 1:0.5 2:0.95447 3:0.559428 4:0.742431 5:0.184528 6:0.0622802 7:0.0159986 8:0.0172061 9:0.0133325 10:0.00553611 11:1 37:0.954045 27032:0.635149 48469:0.358357 
-8 1:0.25 2:0.147615 3:0.13664 4:0.00829137 5:0.171618 6:0.0188539 7:0.0149989 8:0.00469521 9:0.0199973 10:0.00478801 11:1 37:0.995055 
-8 1:0.3 2:0.315004 3:0.99417 4:0.999892 5:0.98518 6:0.999982 7:0.0124993 8:0.0105669 9:0.114496 10:0.180939 11:1 37:0.635149 27363:0.244919 38771:0.964028 
-7.515426167160232 1:0.666667 2:0.984173 3:1 4:1 5:1 6:1 7:0.0649086 8:0.0534835 9:0.0632488 10:0.0800481 11:1 37:0.694783 11162:0.404127 11165:0.694783 11173:0.404127 49164:0.404127 
-7.894335253338094 1:1 2:1 3:0.00999967 4:0 5:0 6:0 7:0.00529407 8:0.00310847 9:0 10:0 11:0 135:0.994439 37276:0.0587558 
-3.809965577667196 1:1 2:1 3:0.00999967 4:0 5:0 6:0 7:0.00510634 8:0.00308612 9:0 10:0 11:0 135:0.994383 41630:0.0637432 
-0.4441584086947671 1:1 2:1 3:0.00999967 4:0 5:0 6:0 7:0.00399998 8:0.00437214 9:0 10:0 11:0 135:0.983675 8900:0.53705 
-5.654011277794499 1:0.6 2:0.308108 3:0.00999967 4:0 5:0.0266603 6:0.0235659 7:0.00333332 8:0.00618607 9:0.0199973 10:0.0256953 11:0.166667 35:0.462117 135:0.905148 36259:0.462117 41230:0.462117 
-8 1:0.435484 2:0.253845 3:0.0532828 4:0.0180515 5:0.0689381 6:0.00749891 7:0.0177759 8:0.005766 9:0.0199973 10:0.00517115 11:1 3401:0.995055 
-8 1:0.506329 2:0.395072 3:0.0644107 4:0.00804656 5:0.0698859 6:0 7:0.0194975 8:0.00447134 9:0.0187478 10:0.00381318 11:1 3401:0.995055 
-8 1:0.422236 2:0.469658 3:0.0638578 4:0.0405056 5:0.0755023 6:0.0506238 7:0.056536 8:0.03186 9:0.0514136 10:0.0368642 11:0.995448 34:0.108551 92:0.992616 
-8 1:0.413806 2:0.497582 3:0.0781148 4:0.0911906 5:0.0799966 6:0.052131 7:0.0739492 8:0.0514756 9:0.0621124 10:0.0487825 11:0.999431 34:0.231961 92:0.990839 
