svm_type c_svc
kernel_type rbf
gamma 0.125
nr_class 2
total_sv 49
rho -0.769839
label 1 -1
nr_sv 24 25
SV
6.219493329069524 1:0 2:0 3:0 4:0 5:0.227384 6:0.457869 7:0 8:0 9:0.0925912 10:0.152846 11:0 149:0.694783 150:0.972846 
0.1282756674374586 1:0.986842 2:0.671515 3:1 4:1 5:1 6:0 7:0.149786 8:0.47793 9:0.725897 10:0.726252 11:0.56338 135:0.0422284 5365:0.0632956 34386:0.228299 39521:0.0316795 40490:0.0316795 40496:0.0316795 41633:0.0316795 43891:0.228299 44911:0.094785 45532:0.126086 45549:0.0843064 49164:0.749508 
0.737804240107415 1:0.991049 2:0.833172 3:0.439347 4:0.997598 5:0.998871 6:0.994728 7:0.213298 8:0.581693 9:0.894899 10:0.83611 11:0.598008 35014:0.0314362 35382:0.0345774 36810:0.0565434 38518:0.0471349 42890:0.0581106 42922:0.0565434 45146:0.0361478 45192:0.0987339 45294:0.111174 45562:0.0377179 46200:0.0487036 46484:0.0471349 49164:0.828697 
0.4826283501111265 1:0.99341 2:0.924426 3:0.57873 4:0.999999 5:0.993275 6:0.995938 7:0.154513 8:0.511784 9:0.753786 10:0.749784 11:0.547424 36810:0.0392276 36890:0.0636913 38518:0.0380029 42890:0.073457 45192:0.073457 45294:0.0868615 46200:0.0429009 48606:0.073457 49164:0.831245 
0.2646295348825362 1:1 2:1 3:0.138649 4:0.436132 5:0 6:0 7:0.0720939 8:0.217954 9:0 10:0 11:0.824658 36070:0.0533739 38315:0.0533739 41130:0.0369694 44165:0.0533739 49164:0.716298 
1.6376155695521 1:1 2:1 3:0.196791 4:0.65232 5:0 6:0 7:0.171662 8:0.504497 9:0 10:0 11:0.695946 32804:0.121025 33720:0.0405183 36446:0.140947 37040:0.060736 37041:0.0405183 38118:0.121025 40844:0.0809039 41332:0.121025 42496:0.0405183 45606:0.140947 45962:0.060736 45968:0.060736 46080:0.101006 47790:0.060736 48744:0.121025 49164:0.597461 
0.3604933384029885 1:1 2:1 3:0.299207 4:0.899125 5:0 6:0 7:0.0996145 8:0.230664 9:0 10:0 11:0.837838 33804:0.0324211 34920:0.0324211 35761:0.318278 37934:0.0324211 40742:0.0324211 41900:0.0324211 42734:0.0324211 42833:0.0432163 46071:0.181742 46086:0.197375 46685:0.166017 49164:0.714979 
2.042461552090276 1:1 2:1 3:0.609378 4:0.894982 5:0 6:0 7:0.354293 8:0.598004 9:0 10:0 11:0.862069 150:0.103081 5365:0.103081 34025:0.203994 34256:0.203994 34257:0.203994 35697:0.103081 36070:0.203994 38315:0.203994 38401:0.103081 41584:0.203994 44165:0.391689 44183:0.103081 45202:0.103081 45342:0.103081 49164:0.551608 
0.6401137987222282 1:1 2:1 3:0.928603 4:1 5:0 6:0 7:0.273794 8:0.623702 9:0 10:0 11:0.758278 33682:0.0891665 34386:0.325466 40489:0.0496281 40490:0.0496281 40496:0.0793033 43891:0.298568 44911:0.233994 45532:0.157615 45549:0.176926 49164:0.688117 
8 1:0.5 2:0.034539 3:0.336376 4:0.235496 5:0.39693 6:0.388473 7:0 8:0.00306319 9:0 10:0.00310944 11:0.75 37:0.978026 65:0.635149 
5.834751589476065 1:0.5 2:0.269231 3:0.00999967 4:0 5:0.0399787 6:0 7:0 8:0.00813982 9:0 10:0.00306999 11:0 65:0.905148 135:0.905148 
3.787728440703623 1:0.486486 2:0.0429482 3:0.202176 4:0.108518 5:0.381984 6:0.320823 7:0.11614 8:0.0501729 9:0.102496 10:0.060386 11:0.769231 36925:0.0767717 44722:0.152644 47190:0.152644 49164:0.989358 
8 1:1 2:1 3:0.0107403 4:0.00423906 5:0 6:0 7:0.0109255 8:0.0355524 9:0 10:0 11:0 135:0.994475 40341:0.0554985 
0.07444004822560844 1:1 2:1 3:0.0105996 4:0.00419998 5:0 6:0 7:0.00559994 8:0.00917988 9:0 10:0 11:0 135:0.994426 38159:0.0599281 
1.317329843854335 1:1 2:1 3:0.0106379 4:0.00432912 5:0 6:0 7:0.00617013 8:0.0119263 9:0 10:0 11:0 135:0.994383 45502:0.0637432 
8 1:0.6 2:0.308108 3:0.00999967 4:0 5:0.0266603 6:0.0235659 7:0.00333332 8:0.00618607 9:0.0199973 10:0.0256953 11:0.166667 35:0.462117 135:0.905148 36259:0.462117 41230:0.462117 
8 1:0.75 2:0.75 3:0.00999967 4:0 5:0.00999967 6:0 7:0.00333332 8:0.00623686 9:0 10:0.00400998 11:0 135:0.978026 40739:0.635149 
8 1:0.75 2:0.75 3:0.0149989 4:0.0111799 5:0.00999967 6:0 7:0.00499996 8:0.00326676 9:0.00333332 10:0.00510353 11:0 135:0.964028 33145:0.321513 34564:0.321513 36777:0.321513 
8 1:0.8 2:0.8 3:0.00999967 4:0 5:0.00999967 6:0 7:0.00249999 8:0.00358892 9:0 10:0.00303999 11:0 135:0.983675 8900:0.53705 
8 1:0.833333 2:0.544228 3:0.00999967 4:0 5:0.00999967 6:0 7:0.00399998 8:0.00427572 9:0.00499996 10:0.00266018 11:0 135:0.99039 49164:0.321513 
8 1:0.833333 2:0.515604 3:0.00999967 4:0 5:0.00999967 6:0 7:0.00399998 8:0.00517539 9:0.00499996 10:0.00380353 11:0 135:0.99039 49164:0.321513 
0.4650738414111426 1:0.5 2:0.420415 3:0.00999967 4:0 5:0.00999967 6:0 7:0.00571422 8:0.00477031 9:0.00499996 10:0.00292143 11:0 135:0.881981 49164:0.923952 
7.860502991987295 1:0.666667 2:0.0103998 3:0.0732022 4:0.140678 5:0.33045 6:0.63237 7:0.0416426 8:0.0847123 9:0.0433062 10:0.0895183 11:0.166667 135:0.964028 2451:0.462117 49164:0.462117 
0.1574313339943474 1:0.833333 2:0.395628 3:0.00999967 4:0 5:0.00999967 6:0 7:0.00399998 8:0.00390883 9:0.00166667 10:0.00271494 11:0 135:0.98535 49164:0.497106 
-1.116147689646193 1:0.55814 2:0.079589 3:0.38873 4:0.83701 5:0.43457 6:0.909608 7:0.0324129 8:0.0917612 9:0.0148265 10:0.0125486 11:1 37:0.523134 477:0.98429 
-1.151167876330529 1:0.441176 2:0.0159192 3:0.155798 4:0.295599 5:0.878307 6:1 7:0.0319891 8:0.091352 9:0.0174681 10:0.0142432 11:1 37:0.295018 477:0.951234 599:0.691775 
-1.407815201880615 1:0.52 2:0.900047 3:0.0709152 4:0.113924 5:0.0496021 6:0.0670601 7:0.00999967 8:0.0138807 9:0.0114281 10:0.0146492 11:0.875 12:0.35261 15:0.104876 34:0.104876 35:0.20747 92:0.20747 123:0.052583 135:0.052583 149:0.052583 173:0.052583 455:0.686923 3318:0.104876 8092:0.20747 8101:0.104876 11223:0.104876 15366:0.104876 21332:0.104876 23373:0.104876 49164:0.104876 
-0.07005129264344578 1:0.517647 2:0.77172 3:0.131025 4:0.143347 5:0.09957 6:0.0624951 7:0.0554875 8:0.0462374 9:0.0582508 10:0.0491355 11:0.958763 12:0.0888738 34:0.972618 92:0.118256 135:0.044525 455:0.315582 49164:0.118256 
-8 1:0.634444 2:0.381279 3:0.011454 4:0.00684447 5:0.0260387 6:0.0747926 7:0.00749431 8:0.019686 9:0.0222462 10:0.0557934 11:0 135:0.995016 
-8 1:0.538306 2:0.491974 3:0.0133445 4:0.0182379 5:0.0155882 6:0.0203113 7:0.0172105 8:0.131346 9:0.0244362 10:0.148096 11:0 135:0.994969 
-8 1:0.503894 2:0.428823 3:0.012042 4:0.00939054 5:0.0158834 6:0.0198875 7:0.0119381 8:0.034915 9:0.0181976 10:0.0522207 11:0 135:0.995001 
-8 1:0.522124 2:0.390997 3:0.0117485 4:0.00742662 5:0.0199424 6:0.0601892 7:0.010927 8:0.0308001 9:0.0158032 10:0.0500689 11:0 135:0.995016 
-8 1:0.598757 2:0.462303 3:0.0112703 4:0.00661433 5:0.0176837 6:0.0270984 7:0.00905841 8:0.0276081 9:0.0179375 10:0.0469125 11:0 135:0.99503 
-3.436735309322146 1:0.5 2:0.441273 3:0.011446 4:0.00878726 5:0.0146059 6:0.0176191 7:0.0106055 8:0.0442671 9:0.0167549 10:0.0574769 11:0 135:0.995006 
-8 1:0.505974 2:0.422867 3:0.011385 4:0.00780265 5:0.0158046 6:0.0191636 7:0.0105818 8:0.0361135 9:0.018819 10:0.0532636 11:0 135:0.995039 
-8 1:0.501898 2:0.429088 3:0.0117445 4:0.00857802 5:0.0157079 6:0.0197337 7:0.0113854 8:0.0329254 9:0.0174563 10:0.0502332 11:0 135:0.99504 
-8 1:0.50431 2:0.436508 3:0.0116369 4:0.0088345 5:0.0151551 6:0.0185349 7:0.0106453 8:0.0334758 9:0.0173004 10:0.0536902 11:0 135:0.995008 
-0.1024332702679661 1:0.555016 2:0.639549 3:0.159999 4:0.891539 5:0.17323 6:0.949883 7:0.0300612 8:0.0790348 9:0.0263904 10:0.0642741 11:0.999209 1005:0.993657 1007:0.0731436 
-4.659367369521628 1:0.752336 2:0.382421 3:0.0412684 4:0.090101 5:0.0718617 6:0.616805 7:0.0767309 8:0.40326 9:0.0954532 10:0.371739 11:0.0238998 12:0.0568161 455:0.0412405 5072:0.97701 36941:0.1527 39633:0.0812332 40185:0.0768001 41367:0.0978274 47731:0.138509 49164:0.0779087 
-1.187576227163765 1:0.583333 2:0.944175 3:0.853119 4:0.905562 5:0.393555 6:0.421281 7:0.714467 8:0.84933 9:0.0359845 10:0.0471233 11:1 1005:0.995055 
-2.069760598522777 1:0.5 2:0.201888 3:0.916227 4:0.915996 5:0.980869 6:0.996873 7:0.0149989 8:0.00649804 9:0.0149989 10:0.00809482 11:1 37:0.978026 18458:0.635149 
-1.510938437990073 1:0.428571 2:0.436454 3:0.219693 4:0.106161 5:0.989967 6:0.999614 7:0.033321 8:0.0372256 9:0.0574367 10:0.0311045 11:1 37:0.694783 125:0.404127 12516:0.404127 13195:0.404127 47249:0.694783 
-2.012811014779016 1:0.5 2:0.711866 3:0.331934 4:0.380901 5:0.242567 6:0.0432021 7:0.0149989 8:0.00964991 9:0.00999967 10:0.00663341 11:1 37:0.983675 7992:0.291313 8135:0.291313 
-0.7309780004829576 1:0.5 2:0.95447 3:0.559428 4:0.742431 5:0.184528 6:0.0622802 7:0.0159986 8:0.0172061 9:0.0133325 10:0.00553611 11:1 37:0.954045 27032:0.635149 48469:0.358357 
-2.526946782133598 1:0.666667 2:0.984173 3:1 4:1 5:1 6:1 7:0.0649086 8:0.0534835 9:0.0632488 10:0.0800481 11:1 37:0.694783 11162:0.404127 11165:0.694783 11173:0.404127 49164:0.404127 
-8 1:0.967442 2:0.999639 3:0.0803903 4:0.0656648 5:0.00999967 6:0 7:0.0323477 8:0.0350816 9:0.00142857 10:0.00324527 11:0.982368 92:0.135187 135:0.0528474 8012:0.898811 49164:0.871078 
-0.8284624922365226 1:0.971366 2:0.999403 3:0.0970686 4:0.0793062 5:0.0153321 6:0.0120364 7:0.0215426 8:0.0267744 9:0.00533328 10:0.00359724 11:0.971698 92:0.0800172 135:0.0847022 8012:0.961973 49164:0.697907 
-1.004825830785671 1:0.5 2:0.0225235 3:0.0399787 4:0 5:0.967395 6:0 7:0 8:0.00996967 9:0 10:0.00644991 11:1 92:0.995055 
-0.1947560763211681 1:0.506329 2:0.395072 3:0.0644107 4:0.00804656 5:0.0698859 6:0 7:0.0194975 8:0.00447134 9:0.0187478 10:0.00381318 11:1 3401:0.995055 
