svm_type c_svc
kernel_type rbf
gamma 0.03125
nr_class 2
total_sv 14
rho -6.43618
label 1 -1
nr_sv 9 5
SV
216.5043962001601 1:0.52 2:0.900047 3:0.0709152 4:0.113924 5:0.0496021 6:0.0670601 7:0.00999967 8:0.0138807 9:0.0114281 10:0.0146492 11:0.875 12:0.35261 15:0.104876 34:0.104876 35:0.20747 92:0.20747 123:0.052583 135:0.052583 149:0.052583 173:0.052583 455:0.686923 3318:0.104876 8092:0.20747 8101:0.104876 11223:0.104876 15366:0.104876 21332:0.104876 23373:0.104876 49164:0.104876 
59.19719728449483 1:0.505929 2:0.936819 3:0.231266 4:0.708669 5:0.156459 6:0.45922 7:0.0510083 8:0.0480051 9:0.0517904 10:0.0453378 11:0.968531 12:0.119823 34:0.939736 35:0.0701189 92:0.207639 455:0.579831 5072:0.0300912 28271:0.0401122 49164:0.0300912 
32.68436671852487 1:0.483871 2:0.888259 3:0.210146 4:0.49622 5:0.153509 6:0.271507 7:0.0957408 8:0.0738728 9:0.0967205 10:0.0744008 11:0.992571 34:0.981674 92:0.0485627 455:0.475332 
76.91004397132096 1:0.487277 2:0.76374 3:0.15043 4:0.0956363 5:0.125651 6:0.063187 7:0.0769581 8:0.0561057 9:0.0796491 10:0.0552946 11:0.992 34:0.992524 455:0.11165 
810.1069004092252 1:0.526316 2:0.900753 3:0.180984 4:0.143437 5:0.160814 6:0.101604 7:0.075854 8:0.0478717 9:0.0809337 10:0.0493279 11:1 92:0.658111 455:0.976242 
227.8345413827871 1:0.529412 2:0.968846 3:0.238973 4:0.212117 5:0.174661 6:0.169334 7:0.0189451 8:0.0327917 9:0.0188213 10:0.0326466 11:1 33:0.16514 92:0.394119 455:0.083141 30187:0.16514 30205:0.16514 30220:0.16514 30250:0.16514 30313:0.16514 30328:0.16514 30389:0.16514 30524:0.16514 30595:0.16514 30743:0.16514 30759:0.16514 30788:0.16514 30806:0.16514 30975:0.16514 
730.9989305451861 1:0.444444 2:0.863849 3:0.108323 4:0.100092 5:0.108735 6:0.0833187 7:0.0224962 8:0.0373815 9:0.0424744 10:0.0518712 11:1 20:0.148885 92:0.635149 455:0.970452 
731.2192632601552 1:0.44 2:0.857231 3:0.083141 4:0.0981155 5:0.0866245 6:0.0738534 7:0.0399787 8:0.0495725 9:0.052583 10:0.0505724 11:1 92:0.787386 455:0.959174 
89.42881422624205 1:0.47619 2:0.957807 3:1 4:1 5:1 6:1 7:0.137131 8:0.233678 9:0.174621 10:0.258062 11:1 92:0.358357 455:0.986614 885:0.124353 
-1766.945392994111 1:0.50766 2:0.910725 3:0.197146 4:0.195112 5:0.144131 6:0.121813 7:0.0141907 8:0.0673488 9:0.0133179 10:0.0626451 11:1 12:0.0307408 20:0.0331706 92:0.330724 455:0.988845 
-40.3777772842985 1:0.989297 2:0.860594 3:0.159052 4:0.359356 5:0.904323 6:0.884956 7:0.164387 8:0.499657 9:0.548273 10:0.481276 11:0.543852 35630:0.0304005 36810:0.0422842 39622:0.0791641 42800:0.0870423 43362:0.0330422 45146:0.0475621 45192:0.0502002 46200:0.0475621 46484:0.0581099 49164:0.860275 
-8.454176417862346 1:0.428571 2:0.436454 3:0.219693 4:0.106161 5:0.989967 6:0.999614 7:0.033321 8:0.0372256 9:0.0574367 10:0.0311045 11:1 37:0.694783 125:0.404127 12516:0.404127 13195:0.404127 47249:0.694783 
-963.8030509869639 1:0.418033 2:0.911829 3:0.112028 4:0.223957 5:0.0675441 6:0.0645737 7:0.0194618 8:0.0401016 9:0.0186906 10:0.0420279 11:1 92:0.970121 455:0.707928 
-195.3040563148602 1:0.431646 2:0.450355 3:0.0835869 4:0.0675187 5:0.0853213 6:0.0554644 7:0.08141 8:0.0560559 9:0.0748236 10:0.0510091 11:0.998501 12:0.0319135 34:0.469869 92:0.982442 
