svm_type c_svc
kernel_type rbf
gamma 0.007812
nr_class 2
total_sv 28
rho 1.04598
label 1 -1
nr_sv 11 17
SV
99.41207149036082 1:0.461538 2:0.709091 3:0.0704712 4:0.0592868 5:0.0659909 6:0.0535769 7:0.047611 8:0.142479 9:0.0104344 10:0.0091739 11:1 477:0.995055 
67.48896840167596 1:0.545833 2:0.881121 3:0.0775025 4:0.288742 5:0.0758171 6:0.186672 7:0.0351227 8:0.17014 9:0.0297849 10:0.173555 11:0.997892 1005:0.993489 1007:0.0822022 
20.36180436092618 1:0.622429 2:0.849907 3:0.0588682 4:0.134123 5:0.082747 6:0.171657 7:0.0223401 8:0.0877168 9:0.0329823 10:0.179606 11:0.996956 1005:0.993536 1007:0.0563524 
10.33964070297917 1:0.583333 2:0.944175 3:0.853119 4:0.905562 5:0.393555 6:0.421281 7:0.714467 8:0.84933 9:0.0359845 10:0.0471233 11:1 1005:0.995055 
128 1:0.6 2:0.773865 3:0.0249948 4:0.0335284 5:0.0159986 6:0.0119994 7:0 8:0.00167133 9:0.00399998 10:0.00392289 11:0.0909091 37:0.266161 65:0.98535 135:0.266161 
128 1:0.454545 2:0.124224 3:0.0336237 4:0.0500983 5:0.0272155 6:0.0487017 7:0.00545449 8:0.00418668 9:0.00499996 10:0.00354907 11:0.137931 37:0.391689 65:0.988722 
100.8900914690895 1:0.2 2:0.000863604 3:0.0249948 4:0.0149989 5:0.462991 6:0.862161 7:0.00499996 8:0.00566827 9:0.0122216 10:0.0185409 11:0.272727 37:0.674079 65:0.957009 135:0.266161 
128 1:0.615385 2:0.357749 3:0.0311011 4:0.0401017 5:0.029991 6:0.0399787 7:0.00666657 8:0.00375588 9:0.00799983 10:0.00306496 11:0.214286 37:0.566842 65:0.982227 
9.178021939246143 1:0.5 2:0.95447 3:0.559428 4:0.742431 5:0.184528 6:0.0622802 7:0.0159986 8:0.0172061 9:0.0133325 10:0.00553611 11:1 37:0.954045 27032:0.635149 48469:0.358357 
3.353745763768278 1:0.3 2:0.315004 3:0.99417 4:0.999892 5:0.98518 6:0.999982 7:0.0124993 8:0.0105669 9:0.114496 10:0.180939 11:1 37:0.635149 27363:0.244919 38771:0.964028 
24.53684665440005 1:0.666667 2:0.984173 3:1 4:1 5:1 6:1 7:0.0649086 8:0.0534835 9:0.0632488 10:0.0800481 11:1 37:0.694783 11162:0.404127 11165:0.694783 11173:0.404127 49164:0.404127 
-32.48298660073018 1:0.490231 2:0.750228 3:0.177971 4:0.122508 5:0.14744 6:0.0827845 7:0.113076 8:0.0686092 9:0.111747 10:0.0700959 11:0.994261 34:0.987615 37:0.118922 92:0.0341261 455:0.193818 
-24.56598040285528 1:0.499901 2:0.90395 3:0.196293 4:0.997804 5:0.128724 6:0.889725 7:0.0847307 8:0.319794 9:0.0840608 10:0.316046 11:0.9484 92:0.297646 455:0.990863 
-15.12624714879341 1:0.529412 2:0.968846 3:0.238973 4:0.212117 5:0.174661 6:0.169334 7:0.0189451 8:0.0327917 9:0.0188213 10:0.0326466 11:1 33:0.16514 92:0.394119 455:0.083141 30187:0.16514 30205:0.16514 30220:0.16514 30250:0.16514 30313:0.16514 30328:0.16514 30389:0.16514 30524:0.16514 30595:0.16514 30743:0.16514 30759:0.16514 30788:0.16514 30806:0.16514 30975:0.16514 
-5.247767269384633 1:0.5 2:0.960095 3:1 4:1 5:1 6:1 7:0.191602 8:0.283531 9:0.255334 10:0.292743 11:1 92:0.156596 455:0.955785 885:0.738589 
-8.907535154493516 1:0.752336 2:0.382421 3:0.0412684 4:0.090101 5:0.0718617 6:0.616805 7:0.0767309 8:0.40326 9:0.0954532 10:0.371739 11:0.0238998 12:0.0568161 455:0.0412405 5072:0.97701 36941:0.1527 39633:0.0812332 40185:0.0768001 41367:0.0978274 47731:0.138509 49164:0.0779087 
-6.448482666767401 1:0 2:0 3:0 4:0 5:0.227384 6:0.457869 7:0 8:0 9:0.0925912 10:0.152846 11:0 149:0.694783 150:0.972846 
-14.31202117797509 1:0.990885 2:0.89115 3:0.16739 4:0.502218 5:0.930888 6:0.913796 7:0.170249 8:0.522326 9:0.606269 10:0.425445 11:0.608871 33118:0.0741723 35630:0.0397256 36810:0.0586882 42290:0.0517969 42800:0.115269 45146:0.101607 45192:0.0913346 45562:0.098185 46200:0.0604102 46484:0.0345485 49164:0.847149 
-68.22514375850844 1:0.363636 2:0.506674 3:0.0159986 4:0.0119994 5:0.0133325 6:0.00942781 7:0.00399998 8:0.00287847 9:0.00444442 10:0.00219125 11:0 65:0.988386 135:0.404127 
-128 1:0.5 2:0.0152431 3:0.00999967 4:0 5:0.129273 6:0.029991 7:0 8:0.00546769 9:0 10:0.0051142 11:0.5 37:0.905148 65:0.905148 
-128 1:0.538462 2:0.776923 3:0.0177759 4:0.0219953 5:0.00999967 6:0 7:0.0055555 8:0.00406272 9:0.00374998 10:0.00471208 11:0.0588235 37:0.174661 65:0.992969 
-128 1:0.333333 2:0.587571 3:0.00999967 4:0 5:0.00999967 6:0 7:0 8:0.00465997 9:0.00499996 10:0.00733979 11:0 65:0.995055 
-22.47283653599447 1:0.5 2:0.269231 3:0.00999967 4:0 5:0.0399787 6:0 7:0 8:0.00813982 9:0 10:0.00306999 11:0 65:0.905148 135:0.905148 
-26.2349421068439 1:0.486486 2:0.0429482 3:0.202176 4:0.108518 5:0.381984 6:0.320823 7:0.11614 8:0.0501729 9:0.102496 10:0.060386 11:0.769231 36925:0.0767717 44722:0.152644 47190:0.152644 49164:0.989358 
-23.4590704561107 1:0.958025 2:0.999578 3:0.0964314 4:0.0869919 5:0.0124993 6:0.0108968 7:0.0291257 8:0.033037 9:0.00549994 10:0.0030401 11:0.957278 135:0.127467 8012:0.993614 
-35.99863151732682 1:0.571429 2:0.972052 3:0.999792 4:0.998414 5:0.987245 6:0.997031 7:0.170539 8:0.161158 9:0.00428569 10:0.00409076 11:1 92:0.995055 
-16.50945369688854 1:0.666667 2:0.0103998 3:0.0732022 4:0.140678 5:0.33045 6:0.63237 7:0.0416426 8:0.0847123 9:0.0433062 10:0.0895183 11:0.166667 135:0.964028 2451:0.462117 49164:0.462117 
-35.57009228977375 1:0.435484 2:0.253845 3:0.0532828 4:0.0180515 5:0.0689381 6:0.00749891 7:0.0177759 8:0.005766 9:0.0199973 10:0.00517115 11:1 3401:0.995055 
