svm_type c_svc
kernel_type rbf
gamma 0.007812
nr_class 2
total_sv 103
rho 0.746572
label 1 -1
nr_sv 51 52
SV
2 1:0.634444 2:0.381279 3:0.011454 4:0.00684447 5:0.0260387 6:0.0747926 7:0.00749431 8:0.019686 9:0.0222462 10:0.0557934 11:0 135:0.995016 
2 1:0.538306 2:0.491974 3:0.0133445 4:0.0182379 5:0.0155882 6:0.0203113 7:0.0172105 8:0.131346 9:0.0244362 10:0.148096 11:0 135:0.994969 
2 1:0.462535 2:0.403146 3:0.0127925 4:0.013832 5:0.0170162 6:0.0217297 7:0.0129964 8:0.0387526 9:0.0204602 10:0.0569953 11:0 135:0.995031 
2 1:0.417642 2:0.410382 3:0.0154671 4:0.0316794 5:0.0165693 6:0.020914 7:0.0132017 8:0.0406005 9:0.0184425 10:0.050986 11:0 135:0.99502 
2 1:0.49115 2:0.410467 3:0.0115931 4:0.00805379 5:0.0164278 6:0.0209427 7:0.011722 8:0.0335707 9:0.0192499 10:0.0543277 11:0 135:0.995017 
2 1:0.503894 2:0.428823 3:0.012042 4:0.00939054 5:0.0158834 6:0.0198875 7:0.0119381 8:0.034915 9:0.0181976 10:0.0522207 11:0 135:0.995001 
2 1:0.476876 2:0.406241 3:0.0147858 4:0.023103 5:0.0186411 6:0.0254463 7:0.0140056 8:0.0405226 9:0.0215173 10:0.057725 11:0 135:0.995001 
2 1:0.486625 2:0.391742 3:0.0114604 4:0.00731589 5:0.0168157 6:0.0215524 7:0.0120005 8:0.0344447 9:0.0203228 10:0.0568982 11:0 135:0.99501 
2 1:0.522124 2:0.390997 3:0.0117485 4:0.00742662 5:0.0199424 6:0.0601892 7:0.010927 8:0.0308001 9:0.0158032 10:0.0500689 11:0 135:0.995016 
2 1:0.462356 2:0.419317 3:0.013561 4:0.0227106 5:0.0160875 6:0.0195539 7:0.0105826 8:0.0343741 9:0.0196574 10:0.0542748 11:0 135:0.995011 
2 1:0.598757 2:0.462303 3:0.0112703 4:0.00661433 5:0.0176837 6:0.0270984 7:0.00905841 8:0.0276081 9:0.0179375 10:0.0469125 11:0 135:0.99503 
2 1:0.417252 2:0.32658 3:0.0115751 4:0.0079675 5:0.0175426 6:0.0217177 7:0.0126569 8:0.0410201 9:0.0233085 10:0.0584515 11:0 135:0.995042 
2 1:0.5 2:0.441273 3:0.011446 4:0.00878726 5:0.0146059 6:0.0176191 7:0.0106055 8:0.0442671 9:0.0167549 10:0.0574769 11:0 135:0.995006 
2 1:0.492159 2:0.437974 3:0.0113364 4:0.00717447 5:0.0146595 6:0.0169825 7:0.00996224 8:0.0311554 9:0.0161839 10:0.0483992 11:0 135:0.995039 
2 1:0.505974 2:0.422867 3:0.011385 4:0.00780265 5:0.0158046 6:0.0191636 7:0.0105818 8:0.0361135 9:0.018819 10:0.0532636 11:0 135:0.995039 
2 1:0.504673 2:0.404316 3:0.0123329 4:0.0109095 5:0.0173292 6:0.0220339 7:0.0115209 8:0.0339005 9:0.0213958 10:0.058967 11:0 135:0.995031 
2 1:0.427861 2:0.401742 3:0.0151583 4:0.0302338 5:0.0174883 6:0.0220529 7:0.0107394 8:0.0349164 9:0.0131465 10:0.0424396 11:0 135:0.995047 
2 1:0.447261 2:0.424965 3:0.0189963 4:0.0558359 5:0.0202182 6:0.0372158 7:0.0107561 8:0.0369597 9:0.0201899 10:0.0560403 11:0 135:0.995027 
2 1:0.437717 2:0.368734 3:0.0128587 4:0.0141719 5:0.0170678 6:0.022267 7:0.0130768 8:0.0413387 9:0.0200286 10:0.0521994 11:0 135:0.995034 
2 1:0.501898 2:0.429088 3:0.0117445 4:0.00857802 5:0.0157079 6:0.0197337 7:0.0113854 8:0.0329254 9:0.0174563 10:0.0502332 11:0 135:0.99504 
2 1:0.50431 2:0.436508 3:0.0116369 4:0.0088345 5:0.0151551 6:0.0185349 7:0.0106453 8:0.0334758 9:0.0173004 10:0.0536902 11:0 135:0.995008 
2 1:0.501142 2:0.386394 3:0.012207 4:0.0098417 5:0.0183887 6:0.0233995 7:0.0123123 8:0.0350717 9:0.0216957 10:0.0575108 11:0 135:0.99504 
2 1:0.5 2:0.40625 3:0.00999967 4:0 5:0.0399787 6:0 7:0.00499996 8:0.00823482 9:0.00499996 10:0.00237158 11:0 65:0.905148 135:0.905148 
2 1:0.5 2:0.269231 3:0.00999967 4:0 5:0.0399787 6:0 7:0 8:0.00813982 9:0 10:0.00306999 11:0 65:0.905148 135:0.905148 
2 1:1 2:1 3:0.0105451 4:0.00400823 5:0 6:0 7:0.00599993 8:0.00861219 9:0 10:0 11:0 135:0.994486 44993:0.0544914 
2 1:1 2:1 3:0.0105451 4:0.00400823 5:0 6:0 7:0.0056363 8:0.00864793 9:0 10:0 11:0 135:0.994486 49164:0.0544914 
2 1:1 2:1 3:0.0105451 4:0.00400823 5:0 6:0 7:0.00654536 8:0.0106503 9:0 10:0 11:0 135:0.994486 49164:0.0544914 
0.3194874862590505 1:1 2:1 3:0.0105451 4:0.00400823 5:0 6:0 7:0.00599993 8:0.00832886 9:0 10:0 11:0 135:0.994486 38481:0.0544914 
2 1:1 2:1 3:0.0105451 4:0.00400823 5:0 6:0 7:0.00654536 8:0.00902424 9:0 10:0 11:0 135:0.994486 49164:0.0544914 
1.124904690400528 1:1 2:1 3:0.0105451 4:0.00400823 5:0 6:0 7:0.00654536 8:0.00827993 9:0 10:0 11:0 135:0.994486 36944:0.0544914 
2 1:1 2:1 3:0.0107403 4:0.00423906 5:0 6:0 7:0.0109255 8:0.0355524 9:0 10:0 11:0 135:0.994475 40341:0.0554985 
2 1:1 2:1 3:0.0105996 4:0.00419998 5:0 6:0 7:0.00559994 8:0.00917988 9:0 10:0 11:0 135:0.994426 38159:0.0599281 
2 1:1 2:1 3:0.0106118 4:0.00424173 5:0 6:0 7:0.00489792 8:0.0029842 9:0 10:0 11:0 135:0.994412 49164:0.0611481 
2 1:1 2:1 3:0.0106973 4:0.00452142 5:0 6:0 7:0.00581389 8:0.00934252 9:0 10:0 11:0 135:0.994316 49164:0.0696545 
2 1:1 2:1 3:0.0106379 4:0.00432912 5:0 6:0 7:0.00617013 8:0.0119263 9:0 10:0 11:0 135:0.994383 45502:0.0637432 
2 1:1 2:1 3:0.0105451 4:0.00400823 5:0 6:0 7:0.00527268 8:0.00821655 9:0 10:0 11:0 135:0.994486 49164:0.0544914 
2 1:1 2:1 3:0.0257086 4:0.0638009 5:0 6:0 7:0.00380951 8:0.00312868 9:0 10:0 11:0 135:0.993425 48065:0.141893 
2 1:1 2:1 3:0.0105451 4:0.00400823 5:0 6:0 7:0.00654536 8:0.00856604 9:0 10:0 11:0 135:0.994486 49164:0.0544914 
2 1:1 2:1 3:0.0105451 4:0.00400823 5:0 6:0 7:0.00618174 8:0.0108346 9:0 10:0 11:0 135:0.994486 49164:0.0544914 
2 1:1 2:1 3:0.0105451 4:0.00400823 5:0 6:0 7:0.00581812 8:0.00830688 9:0 10:0 11:0 135:0.994486 49164:0.0544914 
2 1:1 2:1 3:0.0120827 4:0.0107928 5:0 6:0 7:0.00624992 8:0.00952127 9:0 10:0 11:0 135:0.994398 39924:0.0624187 
1.77286567758619 1:1 2:1 3:0.00999967 4:0 5:0 6:0 7:0.00399998 8:0.00437214 9:0 10:0 11:0 135:0.983675 8900:0.53705 
2 1:0.6 2:0.308108 3:0.00999967 4:0 5:0.0266603 6:0.0235659 7:0.00333332 8:0.00618607 9:0.0199973 10:0.0256953 11:0.166667 35:0.462117 135:0.905148 36259:0.462117 41230:0.462117 
2 1:0.75 2:0.75 3:0.00999967 4:0 5:0.00999967 6:0 7:0.00333332 8:0.00623686 9:0 10:0.00400998 11:0 135:0.978026 40739:0.635149 
2 1:0.75 2:0.75 3:0.0149989 4:0.0111799 5:0.00999967 6:0 7:0.00499996 8:0.00326676 9:0.00333332 10:0.00510353 11:0 135:0.964028 33145:0.321513 34564:0.321513 36777:0.321513 
2 1:0.8 2:0.8 3:0.00999967 4:0 5:0.00999967 6:0 7:0.00249999 8:0.00358892 9:0 10:0.00303999 11:0 135:0.983675 8900:0.53705 
2 1:0.833333 2:0.544228 3:0.00999967 4:0 5:0.00999967 6:0 7:0.00399998 8:0.00427572 9:0.00499996 10:0.00266018 11:0 135:0.99039 49164:0.321513 
2 1:0.833333 2:0.515604 3:0.00999967 4:0 5:0.00999967 6:0 7:0.00399998 8:0.00517539 9:0.00499996 10:0.00380353 11:0 135:0.99039 49164:0.321513 
2 1:0.5 2:0.420415 3:0.00999967 4:0 5:0.00999967 6:0 7:0.00571422 8:0.00477031 9:0.00499996 10:0.00292143 11:0 135:0.881981 49164:0.923952 
2 1:0.666667 2:0.0103998 3:0.0732022 4:0.140678 5:0.33045 6:0.63237 7:0.0416426 8:0.0847123 9:0.0433062 10:0.0895183 11:0.166667 135:0.964028 2451:0.462117 49164:0.462117 
2 1:0.833333 2:0.395628 3:0.00999967 4:0 5:0.00999967 6:0 7:0.00399998 8:0.00390883 9:0.00166667 10:0.00271494 11:0 135:0.98535 49164:0.497106 
-0.56994509467689 1:0.628571 2:0.598644 3:0.114655 4:0.0743445 5:0.115482 6:0.079581 7:0.0232216 8:0.0194217 9:0.0227961 10:0.023817 11:1 37:0.159345 477:0.991565 599:0.106735 
-1.052194179665205 1:0.496689 2:0.701329 3:0.134125 4:0.0920097 5:0.0999037 6:0.0704081 7:0.0570983 8:0.0436135 9:0.0558941 10:0.045503 11:0.901961 12:0.179841 33:0.179841 34:0.938733 35:0.0725993 92:0.10866 455:0.162191 5072:0.0363476 6678:0.0363476 7559:0.0725993 8037:0.0363476 8092:0.0725993 27029:0.0363476 28271:0.0363476 
-2 1:0.52 2:0.900047 3:0.0709152 4:0.113924 5:0.0496021 6:0.0670601 7:0.00999967 8:0.0138807 9:0.0114281 10:0.0146492 11:0.875 12:0.35261 15:0.104876 34:0.104876 35:0.20747 92:0.20747 123:0.052583 135:0.052583 149:0.052583 173:0.052583 455:0.686923 3318:0.104876 8092:0.20747 8101:0.104876 11223:0.104876 15366:0.104876 21332:0.104876 23373:0.104876 49164:0.104876 
-2 1:0.476015 2:0.261076 3:0.0139873 4:0.0234203 5:0.0273258 6:0.0522332 7:0.0111356 8:0.0440871 9:0.0494437 10:0.226641 11:0.0390356 5072:0.992976 5073:0.0767282 
-2 1:0.545972 2:0.363015 3:0.050849 4:0.147642 5:0.0577974 6:0.297971 7:0.175436 8:0.589214 9:0.0830281 10:0.365217 11:0.0395367 12:0.0365116 5072:0.991331 5073:0.0799547 
-2 1:0.601669 2:0.347881 3:0.0492394 4:0.134864 5:0.0577506 6:0.29631 7:0.174949 8:0.584714 9:0.0814984 10:0.344001 11:0.0245098 12:0.0410232 5072:0.992187 5073:0.0386126 
-2 1:0.523364 2:0.344087 3:0.0487843 4:0.133717 5:0.0567276 6:0.288597 7:0.171501 8:0.579689 9:0.0796197 10:0.33319 11:0.035855 12:0.0476199 5072:0.990842 5073:0.0626841 
-1.610706298729604 1:0.432348 2:0.382111 3:0.0648453 4:0.30871 5:0.0578771 6:0.223595 7:0.116115 8:0.482267 9:0.0558485 10:0.271965 11:0.0638208 12:0.0470288 15:0.115333 5072:0.989653 5073:0.0950461 
-2 1:0.621895 2:0.399048 3:0.0405912 4:0.113299 5:0.0509347 6:0.261306 7:0.140061 8:0.534162 9:0.0839994 10:0.362956 11:0.0666063 12:0.0387162 455:0.0613654 5072:0.991798 
-2 1:0.54512 2:0.438744 3:0.0512526 4:0.136928 5:0.0513111 6:0.283626 7:0.193059 8:0.602898 9:0.111915 10:0.425091 11:0.0308351 12:0.0303065 5072:0.992619 
-2 1:0.752336 2:0.382421 3:0.0412684 4:0.090101 5:0.0718617 6:0.616805 7:0.0767309 8:0.40326 9:0.0954532 10:0.371739 11:0.0238998 12:0.0568161 455:0.0412405 5072:0.97701 36941:0.1527 39633:0.0812332 40185:0.0768001 41367:0.0978274 47731:0.138509 49164:0.0779087 
-2 1:0.587611 2:0.355145 3:0.0521804 4:0.140545 5:0.0523461 6:0.290128 7:0.203557 8:0.606763 9:0.116772 10:0.421275 11:0.0436996 12:0.0375293 5072:0.992701 
-2 1:0.549658 2:0.369727 3:0.0449729 4:0.12607 5:0.0541271 6:0.280045 7:0.168627 8:0.560729 9:0.113965 10:0.419893 11:0.0497512 12:0.0346985 5072:0.99227 5073:0.0525462 
-2 1:0.553812 2:0.416567 3:0.0409533 4:0.118814 5:0.0481292 6:0.268857 7:0.147743 8:0.531919 9:0.11091 10:0.398806 11:0.0783366 5072:0.991569 5073:0.110411 
-2 1:0.554472 2:0.367272 3:0.0425984 4:0.121997 5:0.0516183 6:0.274423 7:0.153977 8:0.542004 9:0.104761 10:0.385727 11:0.0794567 12:0.0350441 5072:0.991034 5073:0.115674 
-2 1:0 2:0 3:0 4:0 5:0.227384 6:0.457869 7:0 8:0 9:0.0925912 10:0.152846 11:0 149:0.694783 150:0.972846 
-2 1:0.990566 2:0.989774 3:0.0827335 4:0.156174 5:0.0599281 6:0 7:0.0253792 8:0.0763176 9:0.0599281 10:0.0319041 11:0.2 135:0.0685944 49164:0.994063 
-2 1:1 2:1 3:0.0353699 4:0.061269 5:0 6:0 7:0.00153846 8:0.00439524 9:0 10:0 11:0.153846 135:0.33296 49164:0.990142 
-2 1:1 2:1 3:0.0793781 4:0.196861 5:0 6:0 7:0.0263575 8:0.066651 9:0 10:0 11:0 135:0.266161 149:0.135525 150:0.135525 1932:0.135525 2336:0.135525 5409:0.135525 7669:0.135525 17462:0.135525 24117:0.135525 35288:0.135525 35420:0.135525 41695:0.135525 41771:0.135525 41822:0.135525 45063:0.135525 48444:0.135525 49164:0.5927 
-2 1:1 2:1 3:0.111313 4:0.295102 5:0 6:0 7:0.0230373 8:0.162884 9:0 10:0 11:0.249436 49164:0.902672 
-2 1:1 2:1 3:0.116228 4:0.426997 5:0 6:0 7:0.0839814 8:0.365162 9:0 10:0 11:0.229377 47534:0.0560589 47626:0.0303495 48330:0.0367819 49164:0.919962 
-1.708213939195037 1:1 2:1 3:0.141007 4:0.325736 5:0 6:0 7:0.0680879 8:0.260175 9:0 10:0 11:0.354015 33132:0.0492302 49164:0.95178 
-2 1:1 2:1 3:0.15621 4:0.296302 5:0 6:0 7:0.0248386 8:0.100215 9:0 10:0 11:0.234375 135:0.139705 5365:0.274062 49164:0.98854 
-2 1:1 2:1 3:0.190443 4:0.203748 5:0 6:0 7:0.0401881 8:0.112994 9:0 10:0 11:0.454545 135:0.0837197 5365:0.266161 49164:0.989934 
-2 1:1 2:1 3:0.190462 4:0.206231 5:0 6:0 7:0.0228129 8:0.0533139 9:0 10:0 11:0.352113 5365:0.433979 49164:0.987519 
-2 1:1 2:1 3:0.192797 4:0.266805 5:0 6:0 7:0.0311345 8:0.112264 9:0 10:0 11:0.369697 135:0.108011 5365:0.247748 49164:0.989465 
-2 1:1 2:1 3:0.21609 4:0.21858 5:0 6:0 7:0.0235911 8:0.0580642 9:0 10:0 11:0.426966 135:0.13402 5365:0.294394 49164:0.988161 
-2 1:1 2:1 3:0.229422 4:0.308439 5:0 6:0 7:0.0513233 8:0.113874 9:0 10:0 11:0.473684 135:0.0944544 5365:0.217521 49164:0.99072 
-2 1:1 2:1 3:0.240319 4:0.333178 5:0 6:0 7:0.0412548 8:0.0818275 9:0 10:0 11:0.496241 135:0.134518 5365:0.221815 49164:0.989849 
-2 1:1 2:1 3:0.268985 4:0.651464 5:0 6:0 7:0.0270447 8:0.0633257 9:0 10:0 11:0.519481 12:0.0384426 135:0.114875 5365:0.152644 49164:0.990869 
-2 1:0.363636 2:0.506674 3:0.0159986 4:0.0119994 5:0.0133325 6:0.00942781 7:0.00399998 8:0.00287847 9:0.00444442 10:0.00219125 11:0 65:0.988386 135:0.404127 
-2 1:0.5 2:0.671344 3:0.0159986 4:0.0119994 5:0.00999967 6:0 7:0.002 8:0.00347976 9:0.00499996 10:0.0035634 11:0 65:0.991483 135:0.266161 
-2 1:0.6 2:0.773865 3:0.0249948 4:0.0335284 5:0.0159986 6:0.0119994 7:0 8:0.00167133 9:0.00399998 10:0.00392289 11:0.0909091 37:0.266161 65:0.98535 135:0.266161 
-2 1:0.5 2:0.0152431 3:0.00999967 4:0 5:0.129273 6:0.029991 7:0 8:0.00546769 9:0 10:0.0051142 11:0.5 37:0.905148 65:0.905148 
-2 1:0.538462 2:0.776923 3:0.0177759 4:0.0219953 5:0.00999967 6:0 7:0.0055555 8:0.00406272 9:0.00374998 10:0.00471208 11:0.0588235 37:0.174661 65:0.992969 
-2 1:0.333333 2:0.587571 3:0.00999967 4:0 5:0.00999967 6:0 7:0 8:0.00465997 9:0.00499996 10:0.00733979 11:0 65:0.995055 
-2 1:0.454545 2:0.124224 3:0.0336237 4:0.0500983 5:0.0272155 6:0.0487017 7:0.00545449 8:0.00418668 9:0.00499996 10:0.00354907 11:0.137931 37:0.391689 65:0.988722 
-2 1:0.444444 2:0.733106 3:0.00999967 4:0 5:0.00999967 6:0 7:0.00428569 8:0.00403222 9:0.00571422 10:0.00232491 11:0 65:0.995055 
-2 1:0.2 2:0.000863604 3:0.0249948 4:0.0149989 5:0.462991 6:0.862161 7:0.00499996 8:0.00566827 9:0.0122216 10:0.0185409 11:0.272727 37:0.674079 65:0.957009 135:0.266161 
-2 1:0.615385 2:0.357749 3:0.0311011 4:0.0401017 5:0.029991 6:0.0399787 7:0.00666657 8:0.00375588 9:0.00799983 10:0.00306496 11:0.214286 37:0.566842 65:0.982227 
-2 1:0.864407 2:0.99954 3:0.11653 4:0.0922012 5:0.00999967 6:0 7:0.0540152 8:0.0328316 9:0.00499996 10:0.00300926 11:0.914439 135:0.251192 8012:0.991751 
-2 1:0.757143 2:0.999558 3:0.110662 4:0.089435 5:0.00999967 6:0 7:0.0619641 8:0.025614 9:0.00499996 10:0.00365599 11:0.935065 135:0.192378 8012:0.992707 
-2 1:0.5 2:0.999633 3:0.11107 4:0.0894039 5:0.00999967 6:0 7:0.0673297 8:0.0183395 9:0.00466663 10:0.00340188 11:0.944882 135:0.163864 8012:0.993123 
-2 1:0.525 2:0.999534 3:0.110877 4:0.0895495 5:0.00999967 6:0 7:0.0690724 8:0.0195833 9:0.0042105 10:0.00264291 11:0.932642 135:0.199366 8012:0.992601 
-2 1:0.730159 2:0.999566 3:0.111111 4:0.0896919 5:0.00999967 6:0 7:0.071342 8:0.0215274 9:0.00611104 10:0.00360912 11:0.935401 135:0.191408 8012:0.992609 
-2 1:0.914474 2:0.999621 3:0.105071 4:0.0891001 5:0.00999967 6:0 7:0.0515061 8:0.0391741 9:0.00499996 10:0.00349687 11:0.944751 92:0.196313 135:0.164245 8012:0.989254 
-2 1:0.26087 2:0.99936 3:0.110813 4:0.0896818 5:0.0124993 6:0.0108968 7:0.0632129 8:0.0129042 9:0.00499996 10:0.00277653 11:0.930769 135:0.204757 8012:0.992285 
-2 1:0.765625 2:0.999531 3:0.10919 4:0.0883243 5:0.00999967 6:0 7:0.0567922 8:0.0228974 9:0.0042105 10:0.00345602 11:0.931472 135:0.188089 8012:0.992549 
-0.4380359527398463 1:0.5 2:0.0225235 3:0.0399787 4:0 5:0.967395 6:0 7:0 8:0.00996967 9:0 10:0.00644991 11:1 92:0.995055 
-2 1:0 2:0 3:0 4:0 5:0.0306722 6:0.00252057 7:0 8:0 9:0.0929131 10:0.00882417 11:1 92:0.995055 
-2 1:0.435484 2:0.253845 3:0.0532828 4:0.0180515 5:0.0689381 6:0.00749891 7:0.0177759 8:0.005766 9:0.0199973 10:0.00517115 11:1 3401:0.995055 
-1.838162389239186 1:0.506329 2:0.395072 3:0.0644107 4:0.00804656 5:0.0698859 6:0 7:0.0194975 8:0.00447134 9:0.0187478 10:0.00381318 11:1 3401:0.995055 
