svm_type c_svc
kernel_type rbf
gamma 0.007812
nr_class 2
total_sv 39
rho 1.21332
label 1 -1
nr_sv 15 24
SV
8 1:0.299096 2:0.426476 3:0.112798 4:0.751564 5:0.0629596 6:0.176475 7:0.062736 8:0.367511 9:0.0379817 10:0.216404 11:0.0436791 15:0.255712 5072:0.987937 5073:0.0820383 
8 1:0.476015 2:0.261076 3:0.0139873 4:0.0234203 5:0.0273258 6:0.0522332 7:0.0111356 8:0.0440871 9:0.0494437 10:0.226641 11:0.0390356 5072:0.992976 5073:0.0767282 
8 1:0.507019 2:0.418209 3:0.0500294 4:0.131476 5:0.0569532 6:0.283743 7:0.162213 8:0.571444 9:0.0684709 10:0.328613 11:0.0811528 12:0.0358323 455:0.138023 5072:0.989271 5073:0.0671133 
8 1:0.505973 2:0.387883 3:0.056924 4:0.143469 5:0.0572618 6:0.290867 7:0.191411 8:0.607271 9:0.0780162 10:0.339458 11:0.0462845 12:0.0438681 455:0.0463714 5072:0.990876 5073:0.0613776 
8 1:0.489916 2:0.401889 3:0.0497792 4:0.132505 5:0.054103 6:0.287644 7:0.185722 8:0.598005 9:0.073116 10:0.335442 11:0.0643162 12:0.0411353 5072:0.989933 5073:0.134096 
8 1:0.432348 2:0.382111 3:0.0648453 4:0.30871 5:0.0578771 6:0.223595 7:0.116115 8:0.482267 9:0.0558485 10:0.271965 11:0.0638208 12:0.0470288 15:0.115333 5072:0.989653 5073:0.0950461 
8 1:0.621895 2:0.399048 3:0.0405912 4:0.113299 5:0.0509347 6:0.261306 7:0.140061 8:0.534162 9:0.0839994 10:0.362956 11:0.0666063 12:0.0387162 455:0.0613654 5072:0.991798 
8 1:0.596304 2:0.43137 3:0.0478979 4:0.114177 5:0.0553591 6:0.255509 7:0.198971 8:0.609638 9:0.10736 10:0.411809 11:0.0710855 12:0.0381171 455:0.115304 5072:0.990498 
3.367771503888096 1:0.599815 2:0.444751 3:0.0461404 4:0.113493 5:0.054136 6:0.254779 7:0.192355 8:0.595618 9:0.130745 10:0.426972 11:0.0664585 12:0.0341373 455:0.0485607 5072:0.991888 
8 1:0.752336 2:0.382421 3:0.0412684 4:0.090101 5:0.0718617 6:0.616805 7:0.0767309 8:0.40326 9:0.0954532 10:0.371739 11:0.0238998 12:0.0568161 455:0.0412405 5072:0.97701 36941:0.1527 39633:0.0812332 40185:0.0768001 41367:0.0978274 47731:0.138509 49164:0.0779087 
8 1:0.553812 2:0.416567 3:0.0409533 4:0.118814 5:0.0481292 6:0.268857 7:0.147743 8:0.531919 9:0.11091 10:0.398806 11:0.0783366 5072:0.991569 5073:0.110411 
8 1:0.554472 2:0.367272 3:0.0425984 4:0.121997 5:0.0516183 6:0.274423 7:0.153977 8:0.542004 9:0.104761 10:0.385727 11:0.0794567 12:0.0350441 5072:0.991034 5073:0.115674 
8 1:0.497754 2:0.702967 3:0.0747288 4:0.462717 5:0.0816509 6:0.253688 7:0.0549977 8:0.0317428 9:0.0529791 10:0.0321046 11:0.995151 12:0.0353984 34:0.0547513 92:0.993296 
8 1:0.431646 2:0.450355 3:0.0835869 4:0.0675187 5:0.0853213 6:0.0554644 7:0.08141 8:0.0560559 9:0.0748236 10:0.0510091 11:0.998501 12:0.0319135 34:0.469869 92:0.982442 
8 1:0.413806 2:0.497582 3:0.0781148 4:0.0911906 5:0.0799966 6:0.052131 7:0.0739492 8:0.0514756 9:0.0621124 10:0.0487825 11:0.999431 34:0.231961 92:0.990839 
-3.383365650734135 1:0.476923 2:0.0459194 3:0.081596 4:0.0803604 5:0.393629 6:0.971475 7:0.0426408 8:0.12445 9:0.0204319 10:0.0418983 11:1 37:0.0985799 477:0.99313 599:0.0658387 
-7.070020981328399 1:0.496689 2:0.701329 3:0.134125 4:0.0920097 5:0.0999037 6:0.0704081 7:0.0570983 8:0.0436135 9:0.0558941 10:0.045503 11:0.901961 12:0.179841 33:0.179841 34:0.938733 35:0.0725993 92:0.10866 455:0.162191 5072:0.0363476 6678:0.0363476 7559:0.0725993 8037:0.0363476 8092:0.0725993 27029:0.0363476 28271:0.0363476 
-4.026648458997794 1:0.634444 2:0.381279 3:0.011454 4:0.00684447 5:0.0260387 6:0.0747926 7:0.00749431 8:0.019686 9:0.0222462 10:0.0557934 11:0 135:0.995016 
-8 1:0.538306 2:0.491974 3:0.0133445 4:0.0182379 5:0.0155882 6:0.0203113 7:0.0172105 8:0.131346 9:0.0244362 10:0.148096 11:0 135:0.994969 
-8 1:0.417252 2:0.32658 3:0.0115751 4:0.0079675 5:0.0175426 6:0.0217177 7:0.0126569 8:0.0410201 9:0.0233085 10:0.0584515 11:0 135:0.995042 
-2.848384421020806 1:0.437717 2:0.368734 3:0.0128587 4:0.0141719 5:0.0170678 6:0.022267 7:0.0130768 8:0.0413387 9:0.0200286 10:0.0521994 11:0 135:0.995034 
-2.061104903921865 1:0.504113 2:0.913001 3:0.311998 4:0.99952 5:0.209216 6:0.980192 7:0.115959 8:0.369249 9:0.116486 10:0.368645 11:0.91356 92:0.32889 455:0.990206 
-5.479796095083259 1:0.501294 2:0.886341 3:0.201375 4:0.889773 5:0.136778 6:0.578446 7:0.106342 8:0.352381 9:0.106668 10:0.352607 11:0.927231 92:0.310401 455:0.9906 
-0.2454333721757641 1:0.501678 2:0.812064 3:0.0995369 4:0.350098 5:0.080003 6:0.216664 7:0.0754665 8:0.286032 9:0.0724037 10:0.284319 11:0.95417 92:0.418166 455:0.987938 
-3.358568020956289 1:0.583333 2:0.944175 3:0.853119 4:0.905562 5:0.393555 6:0.421281 7:0.714467 8:0.84933 9:0.0359845 10:0.0471233 11:1 1005:0.995055 
-8 1:0 2:0 3:0 4:0 5:0.227384 6:0.457869 7:0 8:0 9:0.0925912 10:0.152846 11:0 149:0.694783 150:0.972846 
-0.1676526242330793 1:0.991049 2:0.833172 3:0.439347 4:0.997598 5:0.998871 6:0.994728 7:0.213298 8:0.581693 9:0.894899 10:0.83611 11:0.598008 35014:0.0314362 35382:0.0345774 36810:0.0565434 38518:0.0471349 42890:0.0581106 42922:0.0565434 45146:0.0361478 45192:0.0987339 45294:0.111174 45562:0.0377179 46200:0.0487036 46484:0.0471349 49164:0.828697 
-8 1:0.992593 2:0.648988 3:0.236422 4:0.829932 5:0.999804 6:1 7:0.227449 8:0.602359 9:0.793992 10:0.833525 11:0.54491 32908:0.0598088 32926:0.0598088 34826:0.0598088 37038:0.043884 39634:0.0796711 40008:0.0677603 40570:0.113284 42312:0.0598088 42378:0.0598088 44542:0.0558301 48120:0.039899 49164:0.816327 
-0.4434189582119251 1:0.998586 2:0.995493 3:0.124238 4:0.267247 5:0.114496 6:0.0947152 7:0.163268 8:0.523032 9:0.153771 10:0.15456 11:0.593635 33972:0.0605135 35630:0.0385366 36810:0.0605135 38518:0.0550239 42290:0.0550239 42800:0.131426 45146:0.109716 45192:0.104271 45562:0.107901 46200:0.0641712 49164:0.812601 
-3.723492051248107 1:1 2:1 3:0.107171 4:0.166282 5:0 6:0 7:0.20343 8:0.57637 9:0 10:0 11:0.673303 33336:0.174661 35326:0.16147 36286:0.16147 36288:0.16147 36290:0.16147 36686:0.102803 37796:0.132252 41294:0.0488299 43328:0.0569519 46002:0.0866599 49164:0.707596 
-7.377820004762289 1:1 2:1 3:0.116228 4:0.426997 5:0 6:0 7:0.0839814 8:0.365162 9:0 10:0 11:0.229377 47534:0.0560589 47626:0.0303495 48330:0.0367819 49164:0.919962 
-3.925334429456919 1:1 2:1 3:1 4:1 5:0 6:0 7:0.694395 8:0.845649 9:0 10:0 11:0.285239 47534:0.106147 48330:0.0664944 49164:0.982584 
-8 1:0.333333 2:0.587571 3:0.00999967 4:0 5:0.00999967 6:0 7:0 8:0.00465997 9:0.00499996 10:0.00733979 11:0 65:0.995055 
-8 1:0.454545 2:0.124224 3:0.0336237 4:0.0500983 5:0.0272155 6:0.0487017 7:0.00545449 8:0.00418668 9:0.00499996 10:0.00354907 11:0.137931 37:0.391689 65:0.988722 
-2.495066033310012 1:0.444444 2:0.733106 3:0.00999967 4:0 5:0.00999967 6:0 7:0.00428569 8:0.00403222 9:0.00571422 10:0.00232491 11:0 65:0.995055 
-8 1:0.0138889 2:0.00263394 3:0.029991 4:0 5:0.090562 6:0.0647948 7:0.0499584 8:0.0294051 9:0.0249948 10:0.132722 11:1 92:0.995055 
-0.7596969385909493 1:0 2:0 3:0 4:0 5:0.0306722 6:0.00252057 7:0 8:0 9:0.0929131 10:0.00882417 11:1 92:0.995055 
-8 1:0.214953 2:0.187105 3:0.0207662 4:0.012379 5:0.0324886 6:0.011661 7:0.0311438 8:0.0520429 9:0.0775166 10:0.0653035 11:1 92:0.995055 
-4.001968559856501 1:0.478261 2:0.622089 3:0.040378 4:0.00999166 5:0.0510667 6:0.00415737 7:0.0778422 8:0.113174 9:0.0746755 10:0.0798074 11:1 92:0.995055 
