svm_type c_svc
kernel_type rbf
gamma 0.007812
nr_class 2
total_sv 27
rho 0.702722
label 1 -1
nr_sv 7 20
SV
19.39888180338769 1:0.363636 2:0.506674 3:0.0159986 4:0.0119994 5:0.0133325 6:0.00942781 7:0.00399998 8:0.00287847 9:0.00444442 10:0.00219125 11:0 65:0.988386 135:0.404127 
32 1:0.5 2:0.40625 3:0.00999967 4:0 5:0.0399787 6:0 7:0.00499996 8:0.00823482 9:0.00499996 10:0.00237158 11:0 65:0.905148 135:0.905148 
32 1:0.5 2:0.0152431 3:0.00999967 4:0 5:0.129273 6:0.029991 7:0 8:0.00546769 9:0 10:0.0051142 11:0.5 37:0.905148 65:0.905148 
32 1:0.5 2:0.034539 3:0.336376 4:0.235496 5:0.39693 6:0.388473 7:0 8:0.00306319 9:0 10:0.00310944 11:0.75 37:0.978026 65:0.635149 
32 1:0.5 2:0.269231 3:0.00999967 4:0 5:0.0399787 6:0 7:0 8:0.00813982 9:0 10:0.00306999 11:0 65:0.905148 135:0.905148 
32 1:0.422236 2:0.469658 3:0.0638578 4:0.0405056 5:0.0755023 6:0.0506238 7:0.056536 8:0.03186 9:0.0514136 10:0.0368642 11:0.995448 34:0.108551 92:0.992616 
32 1:0.411735 2:0.457669 3:0.0635359 4:0.0422968 5:0.0767291 6:0.0428709 7:0.0691367 8:0.0540912 9:0.065505 10:0.0506466 11:0.995582 12:0.0506641 34:0.0647677 92:0.992414 
-0.519536668392696 1:0.441176 2:0.549259 3:0.0991729 4:0.067165 5:0.0972776 6:0.060705 7:0.040977 8:0.111113 9:0.0131027 10:0.0101127 11:1 37:0.545705 477:0.983274 
-1.090678146331499 1:0.55814 2:0.079589 3:0.38873 4:0.83701 5:0.43457 6:0.909608 7:0.0324129 8:0.0917612 9:0.0148265 10:0.0125486 11:1 37:0.523134 477:0.98429 
-32 1:0.634444 2:0.381279 3:0.011454 4:0.00684447 5:0.0260387 6:0.0747926 7:0.00749431 8:0.019686 9:0.0222462 10:0.0557934 11:0 135:0.995016 
-24.28947208767493 1:0.522124 2:0.390997 3:0.0117485 4:0.00742662 5:0.0199424 6:0.0601892 7:0.010927 8:0.0308001 9:0.0158032 10:0.0500689 11:0 135:0.995016 
-18.30773087522382 1:0.598757 2:0.462303 3:0.0112703 4:0.00661433 5:0.0176837 6:0.0270984 7:0.00905841 8:0.0276081 9:0.0179375 10:0.0469125 11:0 135:0.99503 
-9.371781606219528 1:0.476015 2:0.261076 3:0.0139873 4:0.0234203 5:0.0273258 6:0.0522332 7:0.0111356 8:0.0440871 9:0.0494437 10:0.226641 11:0.0390356 5072:0.992976 5073:0.0767282 
-5.243985742896661 1:0 2:0 3:0 4:0 5:0.227384 6:0.457869 7:0 8:0 9:0.0925912 10:0.152846 11:0 149:0.694783 150:0.972846 
-4.614649810194315 1:1 2:1 3:0.0793781 4:0.196861 5:0 6:0 7:0.0263575 8:0.066651 9:0 10:0 11:0 135:0.266161 149:0.135525 150:0.135525 1932:0.135525 2336:0.135525 5409:0.135525 7669:0.135525 17462:0.135525 24117:0.135525 35288:0.135525 35420:0.135525 41695:0.135525 41771:0.135525 41822:0.135525 45063:0.135525 48444:0.135525 49164:0.5927 
-1.490361547403827 1:1 2:1 3:0.111313 4:0.295102 5:0 6:0 7:0.0230373 8:0.162884 9:0 10:0 11:0.249436 49164:0.902672 
-3.861235435305636 1:0.5 2:0.201888 3:0.916227 4:0.915996 5:0.980869 6:0.996873 7:0.0149989 8:0.00649804 9:0.0149989 10:0.00809482 11:1 37:0.978026 18458:0.635149 
-0.7082710764075505 1:0.428571 2:0.436454 3:0.219693 4:0.106161 5:0.989967 6:0.999614 7:0.033321 8:0.0372256 9:0.0574367 10:0.0311045 11:1 37:0.694783 125:0.404127 12516:0.404127 13195:0.404127 47249:0.694783 
-15.19248254582495 1:0.5 2:0.711866 3:0.331934 4:0.380901 5:0.242567 6:0.0432021 7:0.0149989 8:0.00964991 9:0.00999967 10:0.00663341 11:1 37:0.983675 7992:0.291313 8135:0.291313 
-32 1:0.25 2:0.147615 3:0.13664 4:0.00829137 5:0.171618 6:0.0188539 7:0.0149989 8:0.00469521 9:0.0199973 10:0.00478801 11:1 37:0.995055 
-7.891162935523417 1:0.5 2:0.0225235 3:0.0399787 4:0 5:0.967395 6:0 7:0 8:0.00996967 9:0 10:0.00644991 11:1 92:0.995055 
-0.1726897164207066 1:0.333333 2:0.313636 3:0.0399787 4:0 5:0.0356991 6:0.00903483 7:0.181307 8:0.0158757 9:0.120835 10:0.0424847 11:1 92:0.995055 
-20.33669529898187 1:0 2:0 3:0 4:0 5:0.0306722 6:0.00252057 7:0 8:0 9:0.0929131 10:0.00882417 11:1 92:0.995055 
-0.4099681136668843 1:0.6 2:0.308108 3:0.00999967 4:0 5:0.0266603 6:0.0235659 7:0.00333332 8:0.00618607 9:0.0199973 10:0.0256953 11:0.166667 35:0.462117 135:0.905148 36259:0.462117 41230:0.462117 
-0.8675841110729713 1:0.306604 2:0.333645 3:0.0810895 4:0.064369 5:0.0916576 6:0.0715905 7:0.0624068 8:0.042724 9:0.0473101 10:0.0647563 11:0.9603 34:0.374788 92:0.982165 512:0.109996 49164:0.0339692 
-27.07997407229946 1:0.412836 2:0.373234 3:0.0535994 4:0.0355243 5:0.0753412 6:0.0560523 7:0.0534763 8:0.0438867 9:0.0519718 10:0.0397804 11:0.962482 12:0.0526199 34:0.0400067 92:0.988211 49164:0.0777919 
-5.950622013546968 1:0.431646 2:0.450355 3:0.0835869 4:0.0675187 5:0.0853213 6:0.0554644 7:0.08141 8:0.0560559 9:0.0748236 10:0.0510091 11:0.998501 12:0.0319135 34:0.469869 92:0.982442 
