svm_type c_svc
kernel_type rbf
gamma 0.5
nr_class 2
total_sv 39
rho 0.945748
label 1 -1
nr_sv 2 37
SV
0.7895351650107545 1:0.435484 2:0.253845 3:0.0532828 4:0.0180515 5:0.0689381 6:0.00749891 7:0.0177759 8:0.005766 9:0.0199973 10:0.00517115 11:1 3401:0.995055 
2 1:0.506329 2:0.395072 3:0.0644107 4:0.00804656 5:0.0698859 6:0 7:0.0194975 8:0.00447134 9:0.0187478 10:0.00381318 11:1 3401:0.995055 
-0.02599150074728951 1:0.476923 2:0.0459194 3:0.081596 4:0.0803604 5:0.393629 6:0.971475 7:0.0426408 8:0.12445 9:0.0204319 10:0.0418983 11:1 37:0.0985799 477:0.99313 599:0.0658387 
-0.1865645021961237 1:0.461538 2:0.709091 3:0.0704712 4:0.0592868 5:0.0659909 6:0.0535769 7:0.047611 8:0.142479 9:0.0104344 10:0.0091739 11:1 477:0.995055 
-0.007351439778479206 1:0.463415 2:0.0348292 3:0.841826 4:0.998299 5:0.947 6:0.999987 7:0.0233291 8:0.0154326 9:0.0352978 10:0.0519358 11:1 477:0.986387 599:0.468756 
-0.09384028898603916 1:0.628571 2:0.598644 3:0.114655 4:0.0743445 5:0.115482 6:0.079581 7:0.0232216 8:0.0194217 9:0.0227961 10:0.023817 11:1 37:0.159345 477:0.991565 599:0.106735 
-0.02850952830877826 1:0.482625 2:0.623024 3:0.157306 4:0.0693605 5:0.128316 6:0.0605969 7:0.0793977 8:0.0490204 9:0.0763097 10:0.0478377 11:0.962687 12:0.0954532 15:0.0425275 34:0.979153 35:0.0425275 92:0.0849015 455:0.229861 49164:0.0531414 
-0.0565769168116087 1:0.52 2:0.900047 3:0.0709152 4:0.113924 5:0.0496021 6:0.0670601 7:0.00999967 8:0.0138807 9:0.0114281 10:0.0146492 11:0.875 12:0.35261 15:0.104876 34:0.104876 35:0.20747 92:0.20747 123:0.052583 135:0.052583 149:0.052583 173:0.052583 455:0.686923 3318:0.104876 8092:0.20747 8101:0.104876 11223:0.104876 15366:0.104876 21332:0.104876 23373:0.104876 49164:0.104876 
-0.01500499413126311 1:0.507143 2:0.841666 3:0.0843546 4:0.0862613 5:0.0664496 6:0.0550307 7:0.0359845 8:0.036989 9:0.0353424 10:0.0367466 11:0.944444 12:0.187414 34:0.66978 35:0.120107 37:0.0344691 92:0.0344691 95:0.0344691 100:0.0344691 101:0.0344691 107:0.0344691 455:0.746728 851:0.0344691 1122:0.0344691 3401:0.0344691 6672:0.0344691 8092:0.0688564 8096:0.0344691 8097:0.0344691 8098:0.0344691 8101:0.0344691 8193:0.0344691 9012:0.0516781 10002:0.0344691 10003:0.0344691 28271:0.0516781 49164:0.085994 
-0.2052750923244487 1:0.487277 2:0.76374 3:0.15043 4:0.0956363 5:0.125651 6:0.063187 7:0.0769581 8:0.0561057 9:0.0796491 10:0.0552946 11:0.992 34:0.992524 455:0.11165 
-0.04331059574616433 1:0.417252 2:0.32658 3:0.0115751 4:0.0079675 5:0.0175426 6:0.0217177 7:0.0126569 8:0.0410201 9:0.0233085 10:0.0584515 11:0 135:0.995042 
-0.01539058389843115 1:0.550085 2:0.914252 3:0.177787 4:0.18534 5:0.131497 6:0.100582 7:0.00907935 8:0.0351036 9:0.00975908 10:0.0379833 11:1 92:0.186989 455:0.99251 
-0.07422936339582811 1:0.495186 2:0.892133 3:0.180334 4:0.168438 5:0.13854 6:0.105909 7:0.0132208 8:0.058911 9:0.0147288 10:0.0575545 11:0.999991 92:0.197093 455:0.992469 
-0.1138618495518911 1:0.529412 2:0.968846 3:0.238973 4:0.212117 5:0.174661 6:0.169334 7:0.0189451 8:0.0327917 9:0.0188213 10:0.0326466 11:1 33:0.16514 92:0.394119 455:0.083141 30187:0.16514 30205:0.16514 30220:0.16514 30250:0.16514 30313:0.16514 30328:0.16514 30389:0.16514 30524:0.16514 30595:0.16514 30743:0.16514 30759:0.16514 30788:0.16514 30806:0.16514 30975:0.16514 
-0.007022892711791625 1:0.5 2:0.967177 3:1 4:1 5:1 6:1 7:0.331934 8:0.322625 9:0.331934 10:0.328382 11:1 92:0.635149 455:0.635149 885:0.905148 
-0.003734489601029135 1:0.5 2:0.960095 3:1 4:1 5:1 6:1 7:0.191602 8:0.283531 9:0.255334 10:0.292743 11:1 92:0.156596 455:0.955785 885:0.738589 
-0.1114452754549941 1:0.622429 2:0.849907 3:0.0588682 4:0.134123 5:0.082747 6:0.171657 7:0.0223401 8:0.0877168 9:0.0329823 10:0.179606 11:0.996956 1005:0.993536 1007:0.0563524 
-0.1042241311366579 1:0.499544 2:0.817611 3:0.0586048 4:0.176614 5:0.0617485 6:0.183743 7:0.0268763 8:0.150312 9:0.0234883 10:0.14984 11:0.988008 1005:0.993452 1007:0.0544555 
-0.1242602993396226 1:0.476015 2:0.261076 3:0.0139873 4:0.0234203 5:0.0273258 6:0.0522332 7:0.0111356 8:0.0440871 9:0.0494437 10:0.226641 11:0.0390356 5072:0.992976 5073:0.0767282 
-0.05875534143476239 1:0 2:0 3:0 4:0 5:0.227384 6:0.457869 7:0 8:0 9:0.0925912 10:0.152846 11:0 149:0.694783 150:0.972846 
-0.0006247127568926215 1:0.986842 2:0.671515 3:1 4:1 5:1 6:0 7:0.149786 8:0.47793 9:0.725897 10:0.726252 11:0.56338 135:0.0422284 5365:0.0632956 34386:0.228299 39521:0.0316795 40490:0.0316795 40496:0.0316795 41633:0.0316795 43891:0.228299 44911:0.094785 45532:0.126086 45549:0.0843064 49164:0.749508 
-0.005310096768373932 1:0.991049 2:0.833172 3:0.439347 4:0.997598 5:0.998871 6:0.994728 7:0.213298 8:0.581693 9:0.894899 10:0.83611 11:0.598008 35014:0.0314362 35382:0.0345774 36810:0.0565434 38518:0.0471349 42890:0.0581106 42922:0.0565434 45146:0.0361478 45192:0.0987339 45294:0.111174 45562:0.0377179 46200:0.0487036 46484:0.0471349 49164:0.828697 
-0.01585259198900534 1:0.992366 2:0.0109113 3:0.814219 4:0.997641 5:1 6:0 7:0.0767377 8:0.182087 9:0.382797 10:0.517895 11:0.778761 35761:0.192267 36933:0.0309636 46071:0.144989 46086:0.144989 46685:0.131969 49164:0.796328 
-0.07432887874619308 1:1 2:1 3:0.0199973 4:0 5:0 6:0 7:0 8:0 9:0 10:0 11:1 42011:0.761594 49164:0.964028 
-0.01843949623521062 1:1 2:1 3:0.138649 4:0.436132 5:0 6:0 7:0.0720939 8:0.217954 9:0 10:0 11:0.824658 36070:0.0533739 38315:0.0533739 41130:0.0369694 44165:0.0533739 49164:0.716298 
-0.007035904501392517 1:1 2:1 3:0.609378 4:0.894982 5:0 6:0 7:0.354293 8:0.598004 9:0 10:0 11:0.862069 150:0.103081 5365:0.103081 34025:0.203994 34256:0.203994 34257:0.203994 35697:0.103081 36070:0.203994 38315:0.203994 38401:0.103081 41584:0.203994 44165:0.391689 44183:0.103081 45202:0.103081 45342:0.103081 49164:0.551608 
-0.04204774945742215 1:0.333333 2:0.587571 3:0.00999967 4:0 5:0.00999967 6:0 7:0 8:0.00465997 9:0.00499996 10:0.00733979 11:0 65:0.995055 
-0.0647597922510746 1:0.454545 2:0.124224 3:0.0336237 4:0.0500983 5:0.0272155 6:0.0487017 7:0.00545449 8:0.00418668 9:0.00499996 10:0.00354907 11:0.137931 37:0.391689 65:0.988722 
-0.221742233165058 1:0.486486 2:0.0429482 3:0.202176 4:0.108518 5:0.381984 6:0.320823 7:0.11614 8:0.0501729 9:0.102496 10:0.060386 11:0.769231 36925:0.0767717 44722:0.152644 47190:0.152644 49164:0.989358 
-0.009810567438801219 1:0.428571 2:0.436454 3:0.219693 4:0.106161 5:0.989967 6:0.999614 7:0.033321 8:0.0372256 9:0.0574367 10:0.0311045 11:1 37:0.694783 125:0.404127 12516:0.404127 13195:0.404127 47249:0.694783 
-0.368148093355218 1:0.25 2:0.147615 3:0.13664 4:0.00829137 5:0.171618 6:0.0188539 7:0.0149989 8:0.00469521 9:0.0199973 10:0.00478801 11:1 37:0.995055 
-0.01849568012674607 1:0.3 2:0.315004 3:0.99417 4:0.999892 5:0.98518 6:0.999982 7:0.0124993 8:0.0105669 9:0.114496 10:0.180939 11:1 37:0.635149 27363:0.244919 38771:0.964028 
-0.0006511603835467552 1:0.666667 2:0.984173 3:1 4:1 5:1 6:1 7:0.0649086 8:0.0534835 9:0.0632488 10:0.0800481 11:1 37:0.694783 11162:0.404127 11165:0.694783 11173:0.404127 49164:0.404127 
-0.08536217503932293 1:0.958025 2:0.999578 3:0.0964314 4:0.0869919 5:0.0124993 6:0.0108968 7:0.0291257 8:0.033037 9:0.00549994 10:0.0030401 11:0.957278 135:0.127467 8012:0.993614 
-0.1136926189648084 1:0.421053 2:0.999631 3:0.110471 4:0.0892093 5:0.00999967 6:0 7:0.0627165 8:0.0133212 9:0.00599993 10:0.00278227 11:0.942559 135:0.155389 8012:0.992917 
-0.03919379628839887 1:0.5 2:0.0225235 3:0.0399787 4:0 5:0.967395 6:0 7:0 8:0.00996967 9:0 10:0.00644991 11:1 92:0.995055 
-0.0006726699695971249 1:0 2:0 3:0 4:0 5:0.0306722 6:0.00252057 7:0 8:0 9:0.0929131 10:0.00882417 11:1 92:0.995055 
-0.3275291206162266 1:0.214953 2:0.187105 3:0.0207662 4:0.012379 5:0.0324886 6:0.011661 7:0.0311438 8:0.0520429 9:0.0775166 10:0.0653035 11:1 92:0.995055 
-0.100488741402263 1:0.6 2:0.308108 3:0.00999967 4:0 5:0.0266603 6:0.0235659 7:0.00333332 8:0.00618607 9:0.0199973 10:0.0256953 11:0.166667 35:0.462117 135:0.905148 36259:0.462117 41230:0.462117 
