svm_type c_svc
kernel_type rbf
gamma 0.5
nr_class 2
total_sv 23
rho 2.49877
label 1 -1
nr_sv 10 13
SV
8 1:0.306604 2:0.333645 3:0.0810895 4:0.064369 5:0.0916576 6:0.0715905 7:0.0624068 8:0.042724 9:0.0473101 10:0.0647563 11:0.9603 34:0.374788 92:0.982165 512:0.109996 49164:0.0339692 
8 1:0.412836 2:0.373234 3:0.0535994 4:0.0355243 5:0.0753412 6:0.0560523 7:0.0534763 8:0.0438867 9:0.0519718 10:0.0397804 11:0.962482 12:0.0526199 34:0.0400067 92:0.988211 49164:0.0777919 
8 1:0.421099 2:0.350843 3:0.0610289 4:0.048538 5:0.0877757 6:0.0640161 7:0.0566434 8:0.0511606 9:0.0552674 10:0.0379471 11:0.997177 34:0.134135 92:0.989192 49164:0.109593 
8 1:0.422464 2:0.35356 3:0.0711141 4:0.0562405 5:0.0907751 6:0.0681385 7:0.0601598 8:0.0454526 9:0.056638 10:0.0325271 11:0.996615 34:0.303203 92:0.985455 49164:0.107939 
2.179477883178331 1:0.413455 2:0.373009 3:0.0749057 4:0.0602578 5:0.0941711 6:0.0684464 7:0.0624495 8:0.0464019 9:0.0547491 10:0.0393718 11:0.996894 12:0.0736076 20:0.030566 34:0.357573 92:0.981145 49164:0.112827 
8 1:0.401194 2:0.367064 3:0.067615 4:0.0498051 5:0.0935896 6:0.0679912 7:0.0619066 8:0.0484547 9:0.0788855 10:0.0938664 11:0.995538 34:0.24453 92:0.988205 49164:0.0906595 
8 1:0.41239 2:0.438582 3:0.0630353 4:0.0452694 5:0.0830403 6:0.0584671 7:0.0612097 8:0.0438888 9:0.0501502 10:0.0406528 11:0.998517 12:0.034933 34:0.0578168 92:0.992521 49164:0.0556396 
8 1:0.362115 2:0.426484 3:0.0592297 4:0.0424147 5:0.0711439 6:0.0497304 7:0.0524932 8:0.0333894 9:0.041318 10:0.0353829 11:0.996235 34:0.084438 92:0.993102 
8 1:0.497754 2:0.702967 3:0.0747288 4:0.462717 5:0.0816509 6:0.253688 7:0.0549977 8:0.0317428 9:0.0529791 10:0.0321046 11:0.995151 12:0.0353984 34:0.0547513 92:0.993296 
8 1:0.413806 2:0.497582 3:0.0781148 4:0.0911906 5:0.0799966 6:0.052131 7:0.0739492 8:0.0514756 9:0.0621124 10:0.0487825 11:0.999431 34:0.231961 92:0.990839 
-1.55581469684661 1:0.482625 2:0.623024 3:0.157306 4:0.0693605 5:0.128316 6:0.0605969 7:0.0793977 8:0.0490204 9:0.0763097 10:0.0478377 11:0.962687 12:0.0954532 15:0.0425275 34:0.979153 35:0.0425275 92:0.0849015 455:0.229861 49164:0.0531414 
-0.295005035331036 1:0.526882 2:0.865117 3:0.103237 4:0.150294 5:0.0790348 6:0.0679492 7:0.016392 8:0.0292682 9:0.0221964 10:0.034537 11:0.942308 12:0.160756 34:0.812769 35:0.134319 92:0.313412 455:0.493397 1445:0.0540015 3140:0.0540015 3318:0.0540015 3401:0.0540015 4911:0.0540015 5072:0.0540015 5912:0.0540015 5914:0.0540015 12357:0.0540015 49164:0.0809039 
-0.6933950346651269 1:0.5 2:0.0225235 3:0.0399787 4:0 5:0.967395 6:0 7:0 8:0.00996967 9:0 10:0.00644991 11:1 92:0.995055 
-4.509429343792008 1:0.333333 2:0.313636 3:0.0399787 4:0 5:0.0356991 6:0.00903483 7:0.181307 8:0.0158757 9:0.120835 10:0.0424847 11:1 92:0.995055 
-3.676770836359085 1:0.214953 2:0.187105 3:0.0207662 4:0.012379 5:0.0324886 6:0.011661 7:0.0311438 8:0.0520429 9:0.0775166 10:0.0653035 11:1 92:0.995055 
-8 1:0.462687 2:0.509615 3:0.0408863 4:0.0154444 5:0.0499584 6:0.0156161 7:0.0433062 8:0.0620037 9:0.0502017 10:0.0706569 11:1 92:0.990561 49164:0.313412 
-8 1:0.285714 2:0.307243 3:0.0549446 4:0.00499996 5:0.0698859 6:0.0251608 7:0.0199973 8:0.0165191 9:0.0897578 10:0.0809626 11:1 92:0.995055 
-8 1:0.449208 2:0.487897 3:0.0639376 4:0.0456585 5:0.077331 6:0.0503815 7:0.0614921 8:0.0370259 9:0.0518018 10:0.0377696 11:0.995572 34:0.143597 92:0.992097 
-8 1:0.422236 2:0.469658 3:0.0638578 4:0.0405056 5:0.0755023 6:0.0506238 7:0.056536 8:0.03186 9:0.0514136 10:0.0368642 11:0.995448 34:0.108551 92:0.992616 
-8 1:0.38375 2:0.449419 3:0.0609737 4:0.0422789 5:0.0748945 6:0.0448867 7:0.0580212 8:0.0371238 9:0.0424394 10:0.0410074 11:0.998133 12:0.0337802 34:0.116027 92:0.99229 
-7.449062936184463 1:0.341667 2:0.604582 3:0.0780826 4:0.649101 5:0.0874304 6:0.287603 7:0.0545875 8:0.0369923 9:0.0419269 10:0.0396242 11:0.998665 12:0.04419 92:0.99343 
-8 1:0.411735 2:0.457669 3:0.0635359 4:0.0422968 5:0.0767291 6:0.0428709 7:0.0691367 8:0.0540912 9:0.065505 10:0.0506466 11:0.995582 12:0.0506641 34:0.0647677 92:0.992414 
-8 1:0.431646 2:0.450355 3:0.0835869 4:0.0675187 5:0.0853213 6:0.0554644 7:0.08141 8:0.0560559 9:0.0748236 10:0.0510091 11:0.998501 12:0.0319135 34:0.469869 92:0.982442 
